<?xml version="1.0"?>
<opencv_storage>
<cascade>
  <stageType>BOOST</stageType>
  <featureType>HAAR</featureType>
  <height>32</height>
  <width>32</width>
  <stageParams>
    <boostType>GAB</boostType>
    <minHitRate>9.9900001287460327e-01</minHitRate>
    <maxFalseAlarm>5.0000000000000000e-01</maxFalseAlarm>
    <weightTrimRate>9.4999999999999996e-01</weightTrimRate>
    <maxDepth>1</maxDepth>
    <maxWeakCount>100</maxWeakCount></stageParams>
  <featureParams>
    <maxCatCount>0</maxCatCount>
    <featSize>1</featSize>
    <mode>ALL</mode></featureParams>
  <stageNum>20</stageNum>
  <stages>
    <!-- stage 0 -->
    <_>
      <maxWeakCount>9</maxWeakCount>
      <stageThreshold>-1.2974897623062134e+00</stageThreshold>
      <weakClassifiers>
        <_>
          <internalNodes>
            0 -1 11 -3.3291079103946686e-02</internalNodes>
          <leafValues>
            5.7325464487075806e-01 -5.9308242797851562e-01</leafValues></_>
        <_>
          <internalNodes>
            0 -1 484 4.9833433877211064e-05</internalNodes>
          <leafValues>
            3.2472690939903259e-01 -8.0364036560058594e-01</leafValues></_>
        <_>
          <internalNodes>
            0 -1 32 -3.7806227337568998e-03</internalNodes>
          <leafValues>
            6.1367070674896240e-01 -4.0854814648628235e-01</leafValues></_>
        <_>
          <internalNodes>
            0 -1 559 4.1578607633709908e-03</internalNodes>
          <leafValues>
            -1.8520173430442810e-01 7.8854119777679443e-01</leafValues></_>
        <_>
          <internalNodes>
            0 -1 561 -2.4047147016972303e-03</internalNodes>
          <leafValues>
            7.6899522542953491e-01 -1.9074805080890656e-01</leafValues></_>
        <_>
          <internalNodes>
            0 -1 220 -2.0517013035714626e-03</internalNodes>
          <leafValues>
            4.8229202628135681e-01 -2.9332306981086731e-01</leafValues></_>
        <_>
          <internalNodes>
            0 -1 132 -2.6237133424729109e-03</internalNodes>
          <leafValues>
            8.3972746133804321e-01 -2.2036431729793549e-01</leafValues></_>
        <_>
          <internalNodes>
            0 -1 134 1.4734630240127444e-03</internalNodes>
          <leafValues>
            -2.6354041695594788e-01 7.0833402872085571e-01</leafValues></_>
        <_>
          <internalNodes>
            0 -1 7 -3.0199922621250153e-03</internalNodes>
          <leafValues>
            8.3471238613128662e-01 -1.3687522709369659e-01</leafValues></_></weakClassifiers></_>
    <!-- stage 1 -->
    <_>
      <maxWeakCount>15</maxWeakCount>
      <stageThreshold>-1.7684978246688843e+00</stageThreshold>
      <weakClassifiers>
        <_>
          <internalNodes>
            0 -1 407 8.6198709905147552e-03</internalNodes>
          <leafValues>
            -6.0839158296585083e-01 3.3852139115333557e-01</leafValues></_>
        <_>
          <internalNodes>
            0 -1 27 -9.7511354833841324e-03</internalNodes>
          <leafValues>
            5.0209856033325195e-01 -4.0111291408538818e-01</leafValues></_>
        <_>
          <internalNodes>
            0 -1 554 -9.9188880994915962e-04</internalNodes>
          <leafValues>
            6.3864308595657349e-01 -2.6646262407302856e-01</leafValues></_>
        <_>
          <internalNodes>
            0 -1 366 1.3395765563473105e-04</internalNodes>
          <leafValues>
            -5.9755414724349976e-01 2.3135387897491455e-01</leafValues></_>
        <_>
          <internalNodes>
            0 -1 231 1.6152973985299468e-03</internalNodes>
          <leafValues>
            2.0724733173847198e-01 -7.7254182100296021e-01</leafValues></_>
        <_>
          <internalNodes>
            0 -1 89 1.1640980374068022e-03</internalNodes>
          <leafValues>
            -2.3897549510002136e-01 7.0379680395126343e-01</leafValues></_>
        <_>
          <internalNodes>
            0 -1 83 -1.6819057054817677e-03</internalNodes>
          <leafValues>
            6.7039763927459717e-01 -2.1348105370998383e-01</leafValues></_>
        <_>
          <internalNodes>
            0 -1 193 1.1848758440464735e-03</internalNodes>
          <leafValues>
            -1.8681800365447998e-01 6.2138253450393677e-01</leafValues></_>
        <_>
          <internalNodes>
            0 -1 518 -1.5744010452181101e-03</internalNodes>
          <leafValues>
            6.2784820795059204e-01 -1.9127596914768219e-01</leafValues></_>
        <_>
          <internalNodes>
            0 -1 190 6.2130652368068695e-03</internalNodes>
          <leafValues>
            1.6726477444171906e-01 -8.1039291620254517e-01</leafValues></_>
        <_>
          <internalNodes>
            0 -1 205 3.1579593196511269e-03</internalNodes>
          <leafValues>
            -5.1451736688613892e-01 2.4045674502849579e-01</leafValues></_>
        <_>
          <internalNodes>
            0 -1 548 1.2233306188136339e-03</internalNodes>
          <leafValues>
            -2.8703269362449646e-01 5.2555972337722778e-01</leafValues></_>
        <_>
          <internalNodes>
            0 -1 553 6.1803613789379597e-03</internalNodes>
          <leafValues>
            -1.8328137695789337e-01 5.6977868080139160e-01</leafValues></_>
        <_>
          <internalNodes>
            0 -1 66 -1.1569567723199725e-03</internalNodes>
          <leafValues>
            5.6143534183502197e-01 -2.3517274856567383e-01</leafValues></_>
        <_>
          <internalNodes>
            0 -1 417 -1.4115639496594667e-03</internalNodes>
          <leafValues>
            3.8370612263679504e-01 -3.6917173862457275e-01</leafValues></_></weakClassifiers></_>
    <!-- stage 2 -->
    <_>
      <maxWeakCount>20</maxWeakCount>
      <stageThreshold>-1.4934213161468506e+00</stageThreshold>
      <weakClassifiers>
        <_>
          <internalNodes>
            0 -1 10 -1.7438745126128197e-02</internalNodes>
          <leafValues>
            5.0227272510528564e-01 -3.9464285969734192e-01</leafValues></_>
        <_>
          <internalNodes>
            0 -1 508 -2.9764171689748764e-02</internalNodes>
          <leafValues>
            5.2791106700897217e-01 -3.4736379981040955e-01</leafValues></_>
        <_>
          <internalNodes>
            0 -1 370 7.4912365525960922e-03</internalNodes>
          <leafValues>
            -3.9773717522621155e-01 2.8253224492073059e-01</leafValues></_>
        <_>
          <internalNodes>
            0 -1 480 -2.6099587557837367e-04</internalNodes>
          <leafValues>
            1.9660155475139618e-01 -5.4484599828720093e-01</leafValues></_>
        <_>
          <internalNodes>
            0 -1 219 1.6355171799659729e-02</internalNodes>
          <leafValues>
            1.7731939256191254e-01 -7.3459404706954956e-01</leafValues></_>
        <_>
          <internalNodes>
            0 -1 65 1.8043807940557599e-03</internalNodes>
          <leafValues>
            -2.4586166441440582e-01 6.1054986715316772e-01</leafValues></_>
        <_>
          <internalNodes>
            0 -1 259 -3.5741096362471581e-03</internalNodes>
          <leafValues>
            -8.8022947311401367e-01 1.9708597660064697e-01</leafValues></_>
        <_>
          <internalNodes>
            0 -1 286 -4.0555587038397789e-03</internalNodes>
          <leafValues>
            3.3420914411544800e-01 -3.0178266763687134e-01</leafValues></_>
        <_>
          <internalNodes>
            0 -1 262 2.4887337349355221e-03</internalNodes>
          <leafValues>
            -1.9939865171909332e-01 5.0451338291168213e-01</leafValues></_>
        <_>
          <internalNodes>
            0 -1 38 -5.8466689661145210e-03</internalNodes>
          <leafValues>
            6.3492643833160400e-01 -1.4163024723529816e-01</leafValues></_>
        <_>
          <internalNodes>
            0 -1 563 -3.6583596374839544e-03</internalNodes>
          <leafValues>
            6.0310357809066772e-01 -1.4083473384380341e-01</leafValues></_>
        <_>
          <internalNodes>
            0 -1 443 6.8394595291465521e-04</internalNodes>
          <leafValues>
            -4.2632198333740234e-01 2.3951999843120575e-01</leafValues></_>
        <_>
          <internalNodes>
            0 -1 453 7.0219263434410095e-02</internalNodes>
          <leafValues>
            1.0865637660026550e-01 -7.8740888833999634e-01</leafValues></_>
        <_>
          <internalNodes>
            0 -1 191 2.2468611598014832e-02</internalNodes>
          <leafValues>
            -2.9096621274948120e-01 3.1813707947731018e-01</leafValues></_>
        <_>
          <internalNodes>
            0 -1 140 -2.9525116086006165e-02</internalNodes>
          <leafValues>
            2.8536731004714966e-01 -3.1534683704376221e-01</leafValues></_>
        <_>
          <internalNodes>
            0 -1 261 1.5091546811163425e-03</internalNodes>
          <leafValues>
            -2.7209949493408203e-01 3.4638726711273193e-01</leafValues></_>
        <_>
          <internalNodes>
            0 -1 397 -1.5862220898270607e-03</internalNodes>
          <leafValues>
            6.2863814830780029e-01 -1.3961598277091980e-01</leafValues></_>
        <_>
          <internalNodes>
            0 -1 70 -1.7930089961737394e-03</internalNodes>
          <leafValues>
            5.6567710638046265e-01 -1.4179700613021851e-01</leafValues></_>
        <_>
          <internalNodes>
            0 -1 272 -4.8645384609699249e-02</internalNodes>
          <leafValues>
            6.4333498477935791e-01 -1.2872673571109772e-01</leafValues></_>
        <_>
          <internalNodes>
            0 -1 490 1.6016343608498573e-02</internalNodes>
          <leafValues>
            -1.1576743423938751e-01 6.0805130004882812e-01</leafValues></_></weakClassifiers></_>
    <!-- stage 3 -->
    <_>
      <maxWeakCount>18</maxWeakCount>
      <stageThreshold>-1.4079905748367310e+00</stageThreshold>
      <weakClassifiers>
        <_>
          <internalNodes>
            0 -1 8 -6.1900079250335693e-02</internalNodes>
          <leafValues>
            5.2453655004501343e-01 -4.4413664937019348e-01</leafValues></_>
        <_>
          <internalNodes>
            0 -1 420 1.2924179827678017e-05</internalNodes>
          <leafValues>
            -3.5110238194465637e-01 3.3471566438674927e-01</leafValues></_>
        <_>
          <internalNodes>
            0 -1 199 1.2051753401465248e-05</internalNodes>
          <leafValues>
            -3.1081143021583557e-01 3.9839163422584534e-01</leafValues></_>
        <_>
          <internalNodes>
            0 -1 379 3.8719834992662072e-04</internalNodes>
          <leafValues>
            9.4754494726657867e-02 -8.2645016908645630e-01</leafValues></_>
        <_>
          <internalNodes>
            0 -1 483 -2.5063234716071747e-05</internalNodes>
          <leafValues>
            2.0415475964546204e-01 -6.1264616250991821e-01</leafValues></_>
        <_>
          <internalNodes>
            0 -1 0 -1.7425306141376495e-02</internalNodes>
          <leafValues>
            5.9269893169403076e-01 -2.0729880034923553e-01</leafValues></_>
        <_>
          <internalNodes>
            0 -1 282 -3.5991938784718513e-03</internalNodes>
          <leafValues>
            -8.2999020814895630e-01 1.0805342346429825e-01</leafValues></_>
        <_>
          <internalNodes>
            0 -1 230 -1.9795894622802734e-03</internalNodes>
          <leafValues>
            -5.9650152921676636e-01 1.4790336787700653e-01</leafValues></_>
        <_>
          <internalNodes>
            0 -1 425 1.7834112513810396e-03</internalNodes>
          <leafValues>
            -1.4084173738956451e-01 7.5909620523452759e-01</leafValues></_>
        <_>
          <internalNodes>
            0 -1 425 -1.5740809030830860e-03</internalNodes>
          <leafValues>
            7.1523249149322510e-01 -8.8835984468460083e-02</leafValues></_>
        <_>
          <internalNodes>
            0 -1 176 3.5150599479675293e-01</internalNodes>
          <leafValues>
            1.1308395117521286e-01 -8.2426464557647705e-01</leafValues></_>
        <_>
          <internalNodes>
            0 -1 367 2.7403072454035282e-04</internalNodes>
          <leafValues>
            -3.8647064566612244e-01 2.2054724395275116e-01</leafValues></_>
        <_>
          <internalNodes>
            0 -1 34 2.6225097477436066e-02</internalNodes>
          <leafValues>
            -2.3664884269237518e-01 4.2025834321975708e-01</leafValues></_>
        <_>
          <internalNodes>
            0 -1 411 6.2198266386985779e-03</internalNodes>
          <leafValues>
            1.0123640298843384e-01 -7.9279375076293945e-01</leafValues></_>
        <_>
          <internalNodes>
            0 -1 166 5.4528395594388712e-06</internalNodes>
          <leafValues>
            -2.8744304180145264e-01 3.0625817179679871e-01</leafValues></_>
        <_>
          <internalNodes>
            0 -1 165 4.9075093120336533e-03</internalNodes>
          <leafValues>
            1.0158609598875046e-01 -8.5246175527572632e-01</leafValues></_>
        <_>
          <internalNodes>
            0 -1 324 1.5800101682543755e-03</internalNodes>
          <leafValues>
            -1.3297446072101593e-01 6.5987014770507812e-01</leafValues></_>
        <_>
          <internalNodes>
            0 -1 352 6.4584899519104511e-05</internalNodes>
          <leafValues>
            -2.5582575798034668e-01 2.8325077891349792e-01</leafValues></_></weakClassifiers></_>
    <!-- stage 4 -->
    <_>
      <maxWeakCount>23</maxWeakCount>
      <stageThreshold>-1.3246488571166992e+00</stageThreshold>
      <weakClassifiers>
        <_>
          <internalNodes>
            0 -1 51 -1.8096470832824707e-01</internalNodes>
          <leafValues>
            5.4728680849075317e-01 -2.6051661372184753e-01</leafValues></_>
        <_>
          <internalNodes>
            0 -1 537 1.1552397161722183e-02</internalNodes>
          <leafValues>
            -2.3122981190681458e-01 3.8960319757461548e-01</leafValues></_>
        <_>
          <internalNodes>
            0 -1 343 -8.7514356710016727e-04</internalNodes>
          <leafValues>
            -5.2322340011596680e-01 1.6900359094142914e-01</leafValues></_>
        <_>
          <internalNodes>
            0 -1 356 -1.2771794572472572e-03</internalNodes>
          <leafValues>
            6.5004318952560425e-01 -1.2520587444305420e-01</leafValues></_>
        <_>
          <internalNodes>
            0 -1 42 -7.4133989401161671e-03</internalNodes>
          <leafValues>
            4.4572690129280090e-01 -1.7254219949245453e-01</leafValues></_>
        <_>
          <internalNodes>
            0 -1 462 -2.9950059251859784e-04</internalNodes>
          <leafValues>
            1.2759502232074738e-01 -4.6446901559829712e-01</leafValues></_>
        <_>
          <internalNodes>
            0 -1 507 3.2540246844291687e-02</internalNodes>
          <leafValues>
            1.4042250812053680e-01 -6.9058686494827271e-01</leafValues></_>
        <_>
          <internalNodes>
            0 -1 356 9.6456770552322268e-04</internalNodes>
          <leafValues>
            -1.6477411985397339e-01 5.0590354204177856e-01</leafValues></_>
        <_>
          <internalNodes>
            0 -1 295 -1.7768763005733490e-02</internalNodes>
          <leafValues>
            -8.6120289564132690e-01 7.7942475676536560e-02</leafValues></_>
        <_>
          <internalNodes>
            0 -1 257 3.3635986037552357e-03</internalNodes>
          <leafValues>
            7.8916840255260468e-02 -8.1149512529373169e-01</leafValues></_>
        <_>
          <internalNodes>
            0 -1 448 7.4903678614646196e-04</internalNodes>
          <leafValues>
            -1.2763012945652008e-01 6.8454462289810181e-01</leafValues></_>
        <_>
          <internalNodes>
            0 -1 403 -2.1585950162261724e-03</internalNodes>
          <leafValues>
            7.0214688777923584e-01 -8.7513186037540436e-02</leafValues></_>
        <_>
          <internalNodes>
            0 -1 214 3.2003343105316162e-02</internalNodes>
          <leafValues>
            1.0097986459732056e-01 -8.1783068180084229e-01</leafValues></_>
        <_>
          <internalNodes>
            0 -1 319 7.3577626608312130e-04</internalNodes>
          <leafValues>
            -3.1617572903633118e-01 2.6841691136360168e-01</leafValues></_>
        <_>
          <internalNodes>
            0 -1 215 1.3846869478584267e-05</internalNodes>
          <leafValues>
            -2.3348666727542877e-01 3.0486133694648743e-01</leafValues></_>
        <_>
          <internalNodes>
            0 -1 494 6.2742414884269238e-03</internalNodes>
          <leafValues>
            9.5685184001922607e-02 -7.4329084157943726e-01</leafValues></_>
        <_>
          <internalNodes>
            0 -1 393 5.3226982709020376e-04</internalNodes>
          <leafValues>
            -1.3926404714584351e-01 5.1561027765274048e-01</leafValues></_>
        <_>
          <internalNodes>
            0 -1 391 2.1312467288225889e-04</internalNodes>
          <leafValues>
            -1.5803860127925873e-01 3.9906299114227295e-01</leafValues></_>
        <_>
          <internalNodes>
            0 -1 202 -8.7468316778540611e-03</internalNodes>
          <leafValues>
            -5.7263082265853882e-01 1.1902918666601181e-01</leafValues></_>
        <_>
          <internalNodes>
            0 -1 139 -2.5558412075042725e-02</internalNodes>
          <leafValues>
            2.8147581219673157e-01 -2.6156026124954224e-01</leafValues></_>
        <_>
          <internalNodes>
            0 -1 212 -6.3643328845500946e-02</internalNodes>
          <leafValues>
            7.3326373100280762e-01 -7.7471256256103516e-02</leafValues></_>
        <_>
          <internalNodes>
            0 -1 456 1.9290426280349493e-03</internalNodes>
          <leafValues>
            1.4780923724174500e-01 -6.0707539319992065e-01</leafValues></_>
        <_>
          <internalNodes>
            0 -1 348 5.3871913223701995e-06</internalNodes>
          <leafValues>
            -2.6421138644218445e-01 2.4910661578178406e-01</leafValues></_></weakClassifiers></_>
    <!-- stage 5 -->
    <_>
      <maxWeakCount>27</maxWeakCount>
      <stageThreshold>-1.2593353986740112e+00</stageThreshold>
      <weakClassifiers>
        <_>
          <internalNodes>
            0 -1 13 -1.0607240721583366e-02</internalNodes>
          <leafValues>
            2.5643154978752136e-01 -3.8867923617362976e-01</leafValues></_>
        <_>
          <internalNodes>
            0 -1 409 -8.5498800035566092e-04</internalNodes>
          <leafValues>
            -4.0600192546844482e-01 1.7362846434116364e-01</leafValues></_>
        <_>
          <internalNodes>
            0 -1 546 1.1493431404232979e-02</internalNodes>
          <leafValues>
            -2.0461045205593109e-01 3.3903476595878601e-01</leafValues></_>
        <_>
          <internalNodes>
            0 -1 53 -7.2328627109527588e-02</internalNodes>
          <leafValues>
            3.2317787408828735e-01 -2.0003226399421692e-01</leafValues></_>
        <_>
          <internalNodes>
            0 -1 357 -3.2286494970321655e-03</internalNodes>
          <leafValues>
            4.9160528182983398e-01 -1.5784545242786407e-01</leafValues></_>
        <_>
          <internalNodes>
            0 -1 395 1.8251880537718534e-03</internalNodes>
          <leafValues>
            -1.4992077648639679e-01 7.1591413021087646e-01</leafValues></_>
        <_>
          <internalNodes>
            0 -1 420 5.3871913223701995e-06</internalNodes>
          <leafValues>
            -3.4307089447975159e-01 2.2948257625102997e-01</leafValues></_>
        <_>
          <internalNodes>
            0 -1 378 2.1137008443474770e-03</internalNodes>
          <leafValues>
            1.3272926211357117e-01 -7.0499867200851440e-01</leafValues></_>
        <_>
          <internalNodes>
            0 -1 16 -8.9841801673173904e-03</internalNodes>
          <leafValues>
            4.7188147902488708e-01 -1.6281963884830475e-01</leafValues></_>
        <_>
          <internalNodes>
            0 -1 36 2.8938804753124714e-03</internalNodes>
          <leafValues>
            -1.3858893513679504e-01 5.5751430988311768e-01</leafValues></_>
        <_>
          <internalNodes>
            0 -1 208 3.3454305958002806e-03</internalNodes>
          <leafValues>
            7.8952118754386902e-02 -8.5347038507461548e-01</leafValues></_>
        <_>
          <internalNodes>
            0 -1 568 -1.3807164505124092e-03</internalNodes>
          <leafValues>
            4.6957904100418091e-01 -1.3952234387397766e-01</leafValues></_>
        <_>
          <internalNodes>
            0 -1 535 -2.8527826070785522e-02</internalNodes>
          <leafValues>
            -6.4767509698867798e-01 9.5705896615982056e-02</leafValues></_>
        <_>
          <internalNodes>
            0 -1 207 5.5052717216312885e-03</internalNodes>
          <leafValues>
            -3.1072241067886353e-01 2.1864657104015350e-01</leafValues></_>
        <_>
          <internalNodes>
            0 -1 256 3.3630765392445028e-04</internalNodes>
          <leafValues>
            -1.8398229777812958e-01 3.2978430390357971e-01</leafValues></_>
        <_>
          <internalNodes>
            0 -1 58 2.4313516914844513e-03</internalNodes>
          <leafValues>
            -1.3573217391967773e-01 4.3431121110916138e-01</leafValues></_>
        <_>
          <internalNodes>
            0 -1 571 -2.3974808573257178e-04</internalNodes>
          <leafValues>
            -4.3664312362670898e-01 1.4226958155632019e-01</leafValues></_>
        <_>
          <internalNodes>
            0 -1 289 4.4790643732994795e-04</internalNodes>
          <leafValues>
            -2.3306214809417725e-01 2.6874005794525146e-01</leafValues></_>
        <_>
          <internalNodes>
            0 -1 216 9.4483084976673126e-03</internalNodes>
          <leafValues>
            1.1975722014904022e-01 -6.3287317752838135e-01</leafValues></_>
        <_>
          <internalNodes>
            0 -1 372 5.6644544201844838e-06</internalNodes>
          <leafValues>
            -2.9281410574913025e-01 1.8360514938831329e-01</leafValues></_>
        <_>
          <internalNodes>
            0 -1 523 -2.8759548440575600e-03</internalNodes>
          <leafValues>
            3.8947871327400208e-01 -1.4890082180500031e-01</leafValues></_>
        <_>
          <internalNodes>
            0 -1 405 8.3042658865451813e-02</internalNodes>
          <leafValues>
            -1.2069281935691833e-01 4.5276662707328796e-01</leafValues></_>
        <_>
          <internalNodes>
            0 -1 153 -1.8759917002171278e-03</internalNodes>
          <leafValues>
            4.4065645337104797e-01 -1.4878514409065247e-01</leafValues></_>
        <_>
          <internalNodes>
            0 -1 412 -2.9840674251317978e-03</internalNodes>
          <leafValues>
            -9.4867229461669922e-01 7.0732973515987396e-02</leafValues></_>
        <_>
          <internalNodes>
            0 -1 93 1.7214871942996979e-02</internalNodes>
          <leafValues>
            -1.2417337298393250e-01 4.9831625819206238e-01</leafValues></_>
        <_>
          <internalNodes>
            0 -1 369 -3.6352919414639473e-04</internalNodes>
          <leafValues>
            -4.1916766762733459e-01 1.7319361865520477e-01</leafValues></_>
        <_>
          <internalNodes>
            0 -1 432 2.1584238857030869e-03</internalNodes>
          <leafValues>
            -2.0069243013858795e-01 3.3452481031417847e-01</leafValues></_></weakClassifiers></_>
    <!-- stage 6 -->
    <_>
      <maxWeakCount>26</maxWeakCount>
      <stageThreshold>-1.3319153785705566e+00</stageThreshold>
      <weakClassifiers>
        <_>
          <internalNodes>
            0 -1 111 -2.3380300402641296e-01</internalNodes>
          <leafValues>
            5.1532846689224243e-01 -2.6844105124473572e-01</leafValues></_>
        <_>
          <internalNodes>
            0 -1 291 -3.4104327205568552e-03</internalNodes>
          <leafValues>
            -6.8247377872467041e-01 1.3645805418491364e-01</leafValues></_>
        <_>
          <internalNodes>
            0 -1 346 1.9040082115679979e-03</internalNodes>
          <leafValues>
            1.4999125897884369e-01 -5.7466822862625122e-01</leafValues></_>
        <_>
          <internalNodes>
            0 -1 129 -1.0459505021572113e-02</internalNodes>
          <leafValues>
            2.3159825801849365e-01 -2.9350468516349792e-01</leafValues></_>
        <_>
          <internalNodes>
            0 -1 499 -3.9958767592906952e-03</internalNodes>
          <leafValues>
            2.8585767745971680e-01 -2.5671023130416870e-01</leafValues></_>
        <_>
          <internalNodes>
            0 -1 20 4.6809896593913436e-04</internalNodes>
          <leafValues>
            1.1613190919160843e-01 -4.9677613377571106e-01</leafValues></_>
        <_>
          <internalNodes>
            0 -1 509 -1.9331143796443939e-01</internalNodes>
          <leafValues>
            -8.0244588851928711e-01 1.0557781159877777e-01</leafValues></_>
        <_>
          <internalNodes>
            0 -1 307 -2.5346782058477402e-04</internalNodes>
          <leafValues>
            -3.4789904952049255e-01 2.1595431864261627e-01</leafValues></_>
        <_>
          <internalNodes>
            0 -1 209 1.7235790437553078e-04</internalNodes>
          <leafValues>
            1.7008066177368164e-01 -4.5741724967956543e-01</leafValues></_>
        <_>
          <internalNodes>
            0 -1 377 5.6637935340404510e-03</internalNodes>
          <leafValues>
            -3.4780153632164001e-01 1.6985765099525452e-01</leafValues></_>
        <_>
          <internalNodes>
            0 -1 556 -1.3845862122252584e-04</internalNodes>
          <leafValues>
            -4.2696166038513184e-01 1.5971325337886810e-01</leafValues></_>
        <_>
          <internalNodes>
            0 -1 169 1.5424808487296104e-02</internalNodes>
          <leafValues>
            -2.0073646306991577e-01 3.5052692890167236e-01</leafValues></_>
        <_>
          <internalNodes>
            0 -1 77 7.0548523217439651e-03</internalNodes>
          <leafValues>
            -2.5165918469429016e-01 2.7610757946968079e-01</leafValues></_>
        <_>
          <internalNodes>
            0 -1 379 -4.7922076191753149e-04</internalNodes>
          <leafValues>
            -8.0886644124984741e-01 7.8496336936950684e-02</leafValues></_>
        <_>
          <internalNodes>
            0 -1 270 -8.1838741898536682e-03</internalNodes>
          <leafValues>
            4.3909376859664917e-01 -1.6083779931068420e-01</leafValues></_>
        <_>
          <internalNodes>
            0 -1 181 -2.2431349498219788e-04</internalNodes>
          <leafValues>
            -4.1098001599311829e-01 1.7568844556808472e-01</leafValues></_>
        <_>
          <internalNodes>
            0 -1 74 -5.3159482777118683e-03</internalNodes>
          <leafValues>
            4.0347996354103088e-01 -1.7081844806671143e-01</leafValues></_>
        <_>
          <internalNodes>
            0 -1 61 -1.4548364561051130e-04</internalNodes>
          <leafValues>
            -3.5333400964736938e-01 1.9730754196643829e-01</leafValues></_>
        <_>
          <internalNodes>
            0 -1 330 -2.6484689442440867e-04</internalNodes>
          <leafValues>
            -4.2913982272148132e-01 1.3978673517704010e-01</leafValues></_>
        <_>
          <internalNodes>
            0 -1 119 1.2201460049254820e-04</internalNodes>
          <leafValues>
            1.5410332381725311e-01 -3.9246538281440735e-01</leafValues></_>
        <_>
          <internalNodes>
            0 -1 172 -3.1781909056007862e-03</internalNodes>
          <leafValues>
            4.3306234478950500e-01 -1.4324234426021576e-01</leafValues></_>
        <_>
          <internalNodes>
            0 -1 21 3.0777181382291019e-04</internalNodes>
          <leafValues>
            1.3810732960700989e-01 -4.8683574795722961e-01</leafValues></_>
        <_>
          <internalNodes>
            0 -1 541 -2.6486532296985388e-03</internalNodes>
          <leafValues>
            4.1702666878700256e-01 -1.4494155347347260e-01</leafValues></_>
        <_>
          <internalNodes>
            0 -1 75 1.7484921962022781e-02</internalNodes>
          <leafValues>
            -9.1018281877040863e-02 6.6460794210433960e-01</leafValues></_>
        <_>
          <internalNodes>
            0 -1 334 -1.9007612019777298e-02</internalNodes>
          <leafValues>
            4.9702572822570801e-01 -1.2518231570720673e-01</leafValues></_>
        <_>
          <internalNodes>
            0 -1 211 -2.4444964947178960e-04</internalNodes>
          <leafValues>
            -4.3653038144111633e-01 1.7396286129951477e-01</leafValues></_></weakClassifiers></_>
    <!-- stage 7 -->
    <_>
      <maxWeakCount>23</maxWeakCount>
      <stageThreshold>-1.1777894496917725e+00</stageThreshold>
      <weakClassifiers>
        <_>
          <internalNodes>
            0 -1 493 -1.2612801045179367e-02</internalNodes>
          <leafValues>
            2.4537409842014313e-01 -4.0290620923042297e-01</leafValues></_>
        <_>
          <internalNodes>
            0 -1 349 5.5529025848954916e-04</internalNodes>
          <leafValues>
            1.0724421590566635e-01 -6.6633123159408569e-01</leafValues></_>
        <_>
          <internalNodes>
            0 -1 332 5.0535082817077637e-02</internalNodes>
          <leafValues>
            9.7236149013042450e-02 -8.2497233152389526e-01</leafValues></_>
        <_>
          <internalNodes>
            0 -1 373 8.2802080214605667e-06</internalNodes>
          <leafValues>
            -4.1102388501167297e-01 1.6828937828540802e-01</leafValues></_>
        <_>
          <internalNodes>
            0 -1 325 1.8541968893259764e-03</internalNodes>
          <leafValues>
            -8.2427553832530975e-02 7.8806287050247192e-01</leafValues></_>
        <_>
          <internalNodes>
            0 -1 421 -9.1821490786969662e-04</internalNodes>
          <leafValues>
            -7.2843986749649048e-01 8.6843729019165039e-02</leafValues></_>
        <_>
          <internalNodes>
            0 -1 326 -3.0402673874050379e-03</internalNodes>
          <leafValues>
            7.1277487277984619e-01 -1.2157765030860901e-01</leafValues></_>
        <_>
          <internalNodes>
            0 -1 323 -1.3736994005739689e-03</internalNodes>
          <leafValues>
            6.4626264572143555e-01 -9.6544928848743439e-02</leafValues></_>
        <_>
          <internalNodes>
            0 -1 55 -8.0656804144382477e-02</internalNodes>
          <leafValues>
            3.5939797759056091e-01 -1.8660348653793335e-01</leafValues></_>
        <_>
          <internalNodes>
            0 -1 387 -2.2077907487982884e-05</internalNodes>
          <leafValues>
            2.4467013776302338e-01 -2.9159668087959290e-01</leafValues></_>
        <_>
          <internalNodes>
            0 -1 47 -2.0000376389361918e-04</internalNodes>
          <leafValues>
            -4.6836265921592712e-01 1.4550727605819702e-01</leafValues></_>
        <_>
          <internalNodes>
            0 -1 15 6.3607078045606613e-03</internalNodes>
          <leafValues>
            -1.0841327905654907e-01 6.1630821228027344e-01</leafValues></_>
        <_>
          <internalNodes>
            0 -1 127 5.1893619820475578e-04</internalNodes>
          <leafValues>
            -3.7336868047714233e-01 1.7791202664375305e-01</leafValues></_>
        <_>
          <internalNodes>
            0 -1 266 1.8534334376454353e-02</internalNodes>
          <leafValues>
            9.8753310739994049e-02 -6.6456252336502075e-01</leafValues></_>
        <_>
          <internalNodes>
            0 -1 365 7.5597763498080894e-06</internalNodes>
          <leafValues>
            -2.3299296200275421e-01 2.8086796402931213e-01</leafValues></_>
        <_>
          <internalNodes>
            0 -1 184 6.6703534685075283e-03</internalNodes>
          <leafValues>
            -1.7207087576389313e-01 4.2325556278228760e-01</leafValues></_>
        <_>
          <internalNodes>
            0 -1 361 1.1958890536334366e-04</internalNodes>
          <leafValues>
            1.6447910666465759e-01 -4.1909909248352051e-01</leafValues></_>
        <_>
          <internalNodes>
            0 -1 69 -5.3903888911008835e-03</internalNodes>
          <leafValues>
            7.9433494806289673e-01 -8.3026610314846039e-02</leafValues></_>
        <_>
          <internalNodes>
            0 -1 71 3.5373272839933634e-03</internalNodes>
          <leafValues>
            1.3907544314861298e-01 -4.7004863619804382e-01</leafValues></_>
        <_>
          <internalNodes>
            0 -1 447 -1.0527495760470629e-03</internalNodes>
          <leafValues>
            5.6114345788955688e-01 -1.1462210863828659e-01</leafValues></_>
        <_>
          <internalNodes>
            0 -1 564 -4.0833896491676569e-04</internalNodes>
          <leafValues>
            -4.4681826233863831e-01 1.4936785399913788e-01</leafValues></_>
        <_>
          <internalNodes>
            0 -1 468 -6.5779006108641624e-03</internalNodes>
          <leafValues>
            8.4627032279968262e-01 -8.1438280642032623e-02</leafValues></_>
        <_>
          <internalNodes>
            0 -1 263 6.5836047724587843e-06</internalNodes>
          <leafValues>
            -2.2931259870529175e-01 2.7069804072380066e-01</leafValues></_></weakClassifiers></_>
    <!-- stage 8 -->
    <_>
      <maxWeakCount>23</maxWeakCount>
      <stageThreshold>-1.5767741203308105e+00</stageThreshold>
      <weakClassifiers>
        <_>
          <internalNodes>
            0 -1 395 5.3549441508948803e-04</internalNodes>
          <leafValues>
            -1.9665810465812683e-01 6.8918919563293457e-01</leafValues></_>
        <_>
          <internalNodes>
            0 -1 395 -7.4585550464689732e-04</internalNodes>
          <leafValues>
            7.7869623899459839e-01 -2.0819929242134094e-01</leafValues></_>
        <_>
          <internalNodes>
            0 -1 297 2.0035142078995705e-03</internalNodes>
          <leafValues>
            -1.0817234218120575e-01 7.8972613811492920e-01</leafValues></_>
        <_>
          <internalNodes>
            0 -1 327 -1.3255520025268197e-03</internalNodes>
          <leafValues>
            7.9877007007598877e-01 -1.2087938934564590e-01</leafValues></_>
        <_>
          <internalNodes>
            0 -1 353 -1.0625980794429779e-03</internalNodes>
          <leafValues>
            7.4804747104644775e-01 -1.3444998860359192e-01</leafValues></_>
        <_>
          <internalNodes>
            0 -1 354 1.4602679293602705e-03</internalNodes>
          <leafValues>
            -1.0361607372760773e-01 7.2765576839447021e-01</leafValues></_>
        <_>
          <internalNodes>
            0 -1 242 -6.8822526372969151e-05</internalNodes>
          <leafValues>
            -3.7845852971076965e-01 2.3420937359333038e-01</leafValues></_>
        <_>
          <internalNodes>
            0 -1 35 -1.2243214994668961e-02</internalNodes>
          <leafValues>
            5.3936660289764404e-01 -1.5131202340126038e-01</leafValues></_>
        <_>
          <internalNodes>
            0 -1 88 2.1053915843367577e-03</internalNodes>
          <leafValues>
            -1.4957457780838013e-01 5.5004703998565674e-01</leafValues></_>
        <_>
          <internalNodes>
            0 -1 431 -8.5671711713075638e-03</internalNodes>
          <leafValues>
            1.8652819097042084e-01 -4.6997410058975220e-01</leafValues></_>
        <_>
          <internalNodes>
            0 -1 549 -2.9228453058749437e-03</internalNodes>
          <leafValues>
            5.7799232006072998e-01 -1.4694975316524506e-01</leafValues></_>
        <_>
          <internalNodes>
            0 -1 358 -1.1577804107218981e-03</internalNodes>
          <leafValues>
            6.6930669546127319e-01 -1.0582229495048523e-01</leafValues></_>
        <_>
          <internalNodes>
            0 -1 210 -2.3815022723283619e-04</internalNodes>
          <leafValues>
            -3.9019149541854858e-01 2.2807294130325317e-01</leafValues></_>
        <_>
          <internalNodes>
            0 -1 335 -6.4328247681260109e-03</internalNodes>
          <leafValues>
            6.1007094383239746e-01 -1.0952267795801163e-01</leafValues></_>
        <_>
          <internalNodes>
            0 -1 162 -8.3142862422391772e-05</internalNodes>
          <leafValues>
            -3.3115091919898987e-01 2.6004415750503540e-01</leafValues></_>
        <_>
          <internalNodes>
            0 -1 33 4.3865013867616653e-03</internalNodes>
          <leafValues>
            -1.3447688519954681e-01 7.2534966468811035e-01</leafValues></_>
        <_>
          <internalNodes>
            0 -1 294 2.5466699153184891e-03</internalNodes>
          <leafValues>
            1.2932968139648438e-01 -8.3314484357833862e-01</leafValues></_>
        <_>
          <internalNodes>
            0 -1 109 2.8363792225718498e-03</internalNodes>
          <leafValues>
            -1.7041365802288055e-01 5.9603124856948853e-01</leafValues></_>
        <_>
          <internalNodes>
            0 -1 1 -1.2534667039290071e-03</internalNodes>
          <leafValues>
            -5.1340281963348389e-01 1.8003351986408234e-01</leafValues></_>
        <_>
          <internalNodes>
            0 -1 273 -1.7685009539127350e-01</internalNodes>
          <leafValues>
            -8.6392384767532349e-01 8.6086250841617584e-02</leafValues></_>
        <_>
          <internalNodes>
            0 -1 311 1.3364608166739345e-03</internalNodes>
          <leafValues>
            1.3164165616035461e-01 -6.1415898799896240e-01</leafValues></_>
        <_>
          <internalNodes>
            0 -1 384 -1.3114842586219311e-03</internalNodes>
          <leafValues>
            1.8318343162536621e-01 -4.4245851039886475e-01</leafValues></_>
        <_>
          <internalNodes>
            0 -1 445 -4.1921820957213640e-04</internalNodes>
          <leafValues>
            6.4802920818328857e-01 -1.4556813240051270e-01</leafValues></_></weakClassifiers></_>
    <!-- stage 9 -->
    <_>
      <maxWeakCount>22</maxWeakCount>
      <stageThreshold>-1.2685759067535400e+00</stageThreshold>
      <weakClassifiers>
        <_>
          <internalNodes>
            0 -1 331 -1.3736134767532349e-01</internalNodes>
          <leafValues>
            5.5637705326080322e-01 -2.0630568265914917e-01</leafValues></_>
        <_>
          <internalNodes>
            0 -1 413 -9.3501445371657610e-04</internalNodes>
          <leafValues>
            -4.2368182539939880e-01 1.8931208550930023e-01</leafValues></_>
        <_>
          <internalNodes>
            0 -1 406 -2.0501602441072464e-02</internalNodes>
          <leafValues>
            -7.8221291303634644e-01 9.4484508037567139e-02</leafValues></_>
        <_>
          <internalNodes>
            0 -1 398 -2.0318259485065937e-03</internalNodes>
          <leafValues>
            6.8675512075424194e-01 -1.0220712423324585e-01</leafValues></_>
        <_>
          <internalNodes>
            0 -1 458 4.8249145038425922e-03</internalNodes>
          <leafValues>
            7.1115486323833466e-02 -9.0409624576568604e-01</leafValues></_>
        <_>
          <internalNodes>
            0 -1 396 -2.9526320286095142e-03</internalNodes>
          <leafValues>
            4.8301127552986145e-01 -1.4949849247932434e-01</leafValues></_>
        <_>
          <internalNodes>
            0 -1 449 1.9444708013907075e-03</internalNodes>
          <leafValues>
            -1.2775449454784393e-01 6.5699934959411621e-01</leafValues></_>
        <_>
          <internalNodes>
            0 -1 238 -1.6812336444854736e-01</internalNodes>
          <leafValues>
            -7.8250652551651001e-01 1.0856320708990097e-01</leafValues></_>
        <_>
          <internalNodes>
            0 -1 313 2.1248895209282637e-03</internalNodes>
          <leafValues>
            6.2718473374843597e-02 -7.4669086933135986e-01</leafValues></_>
        <_>
          <internalNodes>
            0 -1 142 -1.0302342707291245e-04</internalNodes>
          <leafValues>
            -3.3459585905075073e-01 1.7602691054344177e-01</leafValues></_>
        <_>
          <internalNodes>
            0 -1 475 -5.1009417511522770e-03</internalNodes>
          <leafValues>
            5.5555826425552368e-01 -1.0997980833053589e-01</leafValues></_>
        <_>
          <internalNodes>
            0 -1 39 -1.6419871244579554e-03</internalNodes>
          <leafValues>
            -3.4273141622543335e-01 1.9407574832439423e-01</leafValues></_>
        <_>
          <internalNodes>
            0 -1 222 3.9122672751545906e-04</internalNodes>
          <leafValues>
            -2.4141187965869904e-01 2.4956493079662323e-01</leafValues></_>
        <_>
          <internalNodes>
            0 -1 416 -4.1999630630016327e-03</internalNodes>
          <leafValues>
            -8.7710052728652954e-01 7.9811938107013702e-02</leafValues></_>
        <_>
          <internalNodes>
            0 -1 50 -2.4387292796745896e-04</internalNodes>
          <leafValues>
            -4.8384404182434082e-01 9.5944210886955261e-02</leafValues></_>
        <_>
          <internalNodes>
            0 -1 391 5.1093555521219969e-04</internalNodes>
          <leafValues>
            -1.0707456618547440e-01 5.0647056102752686e-01</leafValues></_>
        <_>
          <internalNodes>
            0 -1 72 1.4076743274927139e-02</internalNodes>
          <leafValues>
            -1.2740400433540344e-01 4.2910861968994141e-01</leafValues></_>
        <_>
          <internalNodes>
            0 -1 302 4.9660382792353630e-03</internalNodes>
          <leafValues>
            8.2627557218074799e-02 -6.9763064384460449e-01</leafValues></_>
        <_>
          <internalNodes>
            0 -1 359 -9.2669343575835228e-04</internalNodes>
          <leafValues>
            5.1523298025131226e-01 -1.2447124719619751e-01</leafValues></_>
        <_>
          <internalNodes>
            0 -1 52 -3.7554323673248291e-02</internalNodes>
          <leafValues>
            4.3364977836608887e-01 -1.2163697928190231e-01</leafValues></_>
        <_>
          <internalNodes>
            0 -1 245 -3.5436592996120453e-02</internalNodes>
          <leafValues>
            -8.6235839128494263e-01 6.4731828868389130e-02</leafValues></_>
        <_>
          <internalNodes>
            0 -1 59 2.1076563745737076e-02</internalNodes>
          <leafValues>
            -2.2416399419307709e-01 2.6343706250190735e-01</leafValues></_></weakClassifiers></_>
    <!-- stage 10 -->
    <_>
      <maxWeakCount>36</maxWeakCount>
      <stageThreshold>-1.3646841049194336e+00</stageThreshold>
      <weakClassifiers>
        <_>
          <internalNodes>
            0 -1 126 -8.2822944968938828e-03</internalNodes>
          <leafValues>
            2.8471529483795166e-01 -2.8528529405593872e-01</leafValues></_>
        <_>
          <internalNodes>
            0 -1 492 -7.4716256931424141e-03</internalNodes>
          <leafValues>
            2.5011268258094788e-01 -2.7915740013122559e-01</leafValues></_>
        <_>
          <internalNodes>
            0 -1 29 1.7015498131513596e-02</internalNodes>
          <leafValues>
            -1.0954555869102478e-01 5.9828984737396240e-01</leafValues></_>
        <_>
          <internalNodes>
            0 -1 73 -2.0229246467351913e-02</internalNodes>
          <leafValues>
            2.7293321490287781e-01 -2.2749479115009308e-01</leafValues></_>
        <_>
          <internalNodes>
            0 -1 410 -6.2759802676737309e-03</internalNodes>
          <leafValues>
            2.3780427873134613e-01 -2.5592753291130066e-01</leafValues></_>
        <_>
          <internalNodes>
            0 -1 40 -1.5975251793861389e-02</internalNodes>
          <leafValues>
            4.3682456016540527e-01 -1.2318367511034012e-01</leafValues></_>
        <_>
          <internalNodes>
            0 -1 337 5.3531855344772339e-02</internalNodes>
          <leafValues>
            6.5600864589214325e-02 -7.2972816228866577e-01</leafValues></_>
        <_>
          <internalNodes>
            0 -1 235 -3.3544574398547411e-04</internalNodes>
          <leafValues>
            2.7252152562141418e-01 -1.8970534205436707e-01</leafValues></_>
        <_>
          <internalNodes>
            0 -1 427 -9.5819933339953423e-03</internalNodes>
          <leafValues>
            3.2769423723220825e-01 -1.5413522720336914e-01</leafValues></_>
        <_>
          <internalNodes>
            0 -1 265 2.4765972048044205e-02</internalNodes>
          <leafValues>
            -1.9196453690528870e-01 2.7227032184600830e-01</leafValues></_>
        <_>
          <internalNodes>
            0 -1 466 -3.1625863630324602e-04</internalNodes>
          <leafValues>
            4.2159813642501831e-01 -1.1716526746749878e-01</leafValues></_>
        <_>
          <internalNodes>
            0 -1 201 2.3861948866397142e-03</internalNodes>
          <leafValues>
            8.0889165401458740e-02 -9.4128632545471191e-01</leafValues></_>
        <_>
          <internalNodes>
            0 -1 345 1.9692721252795309e-05</internalNodes>
          <leafValues>
            -4.1756895184516907e-01 1.1449988931417465e-01</leafValues></_>
        <_>
          <internalNodes>
            0 -1 466 2.9294888372533023e-04</internalNodes>
          <leafValues>
            -1.4161348342895508e-01 3.9844021201133728e-01</leafValues></_>
        <_>
          <internalNodes>
            0 -1 168 2.0815100520849228e-02</internalNodes>
          <leafValues>
            9.4208851456642151e-02 -7.0869278907775879e-01</leafValues></_>
        <_>
          <internalNodes>
            0 -1 527 -3.6060821730643511e-03</internalNodes>
          <leafValues>
            3.2203194499015808e-01 -1.6661749780178070e-01</leafValues></_>
        <_>
          <internalNodes>
            0 -1 94 -1.3715147972106934e-02</internalNodes>
          <leafValues>
            5.7026481628417969e-01 -7.8793033957481384e-02</leafValues></_>
        <_>
          <internalNodes>
            0 -1 122 4.6381526044569910e-04</internalNodes>
          <leafValues>
            -1.6903777420520782e-01 3.0011388659477234e-01</leafValues></_>
        <_>
          <internalNodes>
            0 -1 31 -7.4282912537455559e-03</internalNodes>
          <leafValues>
            5.7648128271102905e-01 -7.9040922224521637e-02</leafValues></_>
        <_>
          <internalNodes>
            0 -1 104 7.2052441537380219e-03</internalNodes>
          <leafValues>
            -6.5491952002048492e-02 7.0085573196411133e-01</leafValues></_>
        <_>
          <internalNodes>
            0 -1 141 9.2053888365626335e-03</internalNodes>
          <leafValues>
            9.4543702900409698e-02 -6.0600113868713379e-01</leafValues></_>
        <_>
          <internalNodes>
            0 -1 525 8.2733538001775742e-03</internalNodes>
          <leafValues>
            -2.2964209318161011e-01 2.2816546261310577e-01</leafValues></_>
        <_>
          <internalNodes>
            0 -1 486 2.0716069266200066e-02</internalNodes>
          <leafValues>
            -1.2932440638542175e-01 4.3781122565269470e-01</leafValues></_>
        <_>
          <internalNodes>
            0 -1 394 1.3741495087742805e-02</internalNodes>
          <leafValues>
            -1.0926856100559235e-01 4.5585623383522034e-01</leafValues></_>
        <_>
          <internalNodes>
            0 -1 521 -1.6719112172722816e-02</internalNodes>
          <leafValues>
            -8.4672415256500244e-01 7.3535524308681488e-02</leafValues></_>
        <_>
          <internalNodes>
            0 -1 491 4.1239168494939804e-03</internalNodes>
          <leafValues>
            -8.8953554630279541e-02 6.4461183547973633e-01</leafValues></_>
        <_>
          <internalNodes>
            0 -1 56 -9.5945168286561966e-03</internalNodes>
          <leafValues>
            4.5479357242584229e-01 -9.0638220310211182e-02</leafValues></_>
        <_>
          <internalNodes>
            0 -1 487 2.2154259495437145e-03</internalNodes>
          <leafValues>
            8.6439445614814758e-02 -5.9013116359710693e-01</leafValues></_>
        <_>
          <internalNodes>
            0 -1 133 -1.2870428618043661e-03</internalNodes>
          <leafValues>
            2.6368343830108643e-01 -1.8937505781650543e-01</leafValues></_>
        <_>
          <internalNodes>
            0 -1 555 -2.2119642235338688e-03</internalNodes>
          <leafValues>
            3.9374151825904846e-01 -1.2738695740699768e-01</leafValues></_>
        <_>
          <internalNodes>
            0 -1 350 -3.1029339879751205e-03</internalNodes>
          <leafValues>
            -7.9194366931915283e-01 6.2273755669593811e-02</leafValues></_>
        <_>
          <internalNodes>
            0 -1 296 1.5728981816209853e-04</internalNodes>
          <leafValues>
            -2.6992025971412659e-01 1.8317583203315735e-01</leafValues></_>
        <_>
          <internalNodes>
            0 -1 363 2.0854908972978592e-02</internalNodes>
          <leafValues>
            -1.9000527262687683e-01 2.9276254773139954e-01</leafValues></_>
        <_>
          <internalNodes>
            0 -1 170 5.9276453612255864e-06</internalNodes>
          <leafValues>
            -2.0846569538116455e-01 2.5879403948783875e-01</leafValues></_>
        <_>
          <internalNodes>
            0 -1 510 1.4638055290561169e-04</internalNodes>
          <leafValues>
            1.6576436161994934e-01 -3.1918814778327942e-01</leafValues></_>
        <_>
          <internalNodes>
            0 -1 423 4.2015896178781986e-04</internalNodes>
          <leafValues>
            -1.2359211593866348e-01 4.5640209317207336e-01</leafValues></_></weakClassifiers></_>
    <!-- stage 11 -->
    <_>
      <maxWeakCount>30</maxWeakCount>
      <stageThreshold>-1.1322233676910400e+00</stageThreshold>
      <weakClassifiers>
        <_>
          <internalNodes>
            0 -1 511 -7.0845213485881686e-04</internalNodes>
          <leafValues>
            1.9400855898857117e-01 -4.5484951138496399e-01</leafValues></_>
        <_>
          <internalNodes>
            0 -1 349 4.5149636571295559e-04</internalNodes>
          <leafValues>
            9.7051806747913361e-02 -5.5589330196380615e-01</leafValues></_>
        <_>
          <internalNodes>
            0 -1 513 -1.8010105937719345e-02</internalNodes>
          <leafValues>
            -8.8567644357681274e-01 6.9742873311042786e-02</leafValues></_>
        <_>
          <internalNodes>
            0 -1 328 -4.7377254813909531e-03</internalNodes>
          <leafValues>
            7.6126921176910400e-01 -6.2602400779724121e-02</leafValues></_>
        <_>
          <internalNodes>
            0 -1 399 -1.4478121884167194e-03</internalNodes>
          <leafValues>
            5.1168876886367798e-01 -1.6106481850147247e-01</leafValues></_>
        <_>
          <internalNodes>
            0 -1 121 8.0159176141023636e-03</internalNodes>
          <leafValues>
            1.1009450256824493e-01 -7.8346437215805054e-01</leafValues></_>
        <_>
          <internalNodes>
            0 -1 283 -2.4733776226639748e-03</internalNodes>
          <leafValues>
            1.7391046881675720e-01 -2.6451572775840759e-01</leafValues></_>
        <_>
          <internalNodes>
            0 -1 515 5.9189279563724995e-03</internalNodes>
          <leafValues>
            1.1574263125658035e-01 -6.5810406208038330e-01</leafValues></_>
        <_>
          <internalNodes>
            0 -1 194 -1.6831648536026478e-03</internalNodes>
          <leafValues>
            2.1782070398330688e-01 -2.5281623005867004e-01</leafValues></_>
        <_>
          <internalNodes>
            0 -1 284 -1.7113131470978260e-03</internalNodes>
          <leafValues>
            -4.5304340124130249e-01 1.4767946302890778e-01</leafValues></_>
        <_>
          <internalNodes>
            0 -1 2 -1.5009182505309582e-02</internalNodes>
          <leafValues>
            3.3509057760238647e-01 -1.7732284963130951e-01</leafValues></_>
        <_>
          <internalNodes>
            0 -1 424 -9.9624041467905045e-04</internalNodes>
          <leafValues>
            4.3363881111145020e-01 -1.1031093448400497e-01</leafValues></_>
        <_>
          <internalNodes>
            0 -1 463 -2.9223854653537273e-04</internalNodes>
          <leafValues>
            1.9031047821044922e-01 -2.4939383566379547e-01</leafValues></_>
        <_>
          <internalNodes>
            0 -1 388 -1.1199243366718292e-02</internalNodes>
          <leafValues>
            -6.6126596927642822e-01 7.8046865761280060e-02</leafValues></_>
        <_>
          <internalNodes>
            0 -1 117 -7.2067882865667343e-03</internalNodes>
          <leafValues>
            6.2025463581085205e-01 -8.5803478956222534e-02</leafValues></_>
        <_>
          <internalNodes>
            0 -1 198 2.9563850257545710e-03</internalNodes>
          <leafValues>
            7.9371616244316101e-02 -6.2767195701599121e-01</leafValues></_>
        <_>
          <internalNodes>
            0 -1 446 -1.1701084440574050e-03</internalNodes>
          <leafValues>
            4.4846349954605103e-01 -1.2124103307723999e-01</leafValues></_>
        <_>
          <internalNodes>
            0 -1 24 -6.1481143347918987e-03</internalNodes>
          <leafValues>
            -3.7329289317131042e-01 1.4121857285499573e-01</leafValues></_>
        <_>
          <internalNodes>
            0 -1 531 -2.0972325000911951e-03</internalNodes>
          <leafValues>
            2.8545349836349487e-01 -1.5811812877655029e-01</leafValues></_>
        <_>
          <internalNodes>
            0 -1 183 -1.3533215038478374e-02</internalNodes>
          <leafValues>
            -6.8335604667663574e-01 7.3680907487869263e-02</leafValues></_>
        <_>
          <internalNodes>
            0 -1 239 2.0504367421381176e-04</internalNodes>
          <leafValues>
            1.6723288595676422e-01 -2.7359402179718018e-01</leafValues></_>
        <_>
          <internalNodes>
            0 -1 187 3.1466584187000990e-04</internalNodes>
          <leafValues>
            -2.1560697257518768e-01 2.1734148263931274e-01</leafValues></_>
        <_>
          <internalNodes>
            0 -1 161 -2.6487920433282852e-02</internalNodes>
          <leafValues>
            4.8757410049438477e-01 -1.0631188005208969e-01</leafValues></_>
        <_>
          <internalNodes>
            0 -1 433 -2.7024251176044345e-04</internalNodes>
          <leafValues>
            -3.6020299792289734e-01 1.5048038959503174e-01</leafValues></_>
        <_>
          <internalNodes>
            0 -1 159 2.1916866302490234e-02</internalNodes>
          <leafValues>
            5.1589667797088623e-02 -9.3971544504165649e-01</leafValues></_>
        <_>
          <internalNodes>
            0 -1 472 -4.1185080772265792e-04</internalNodes>
          <leafValues>
            1.3123698532581329e-01 -3.6205542087554932e-01</leafValues></_>
        <_>
          <internalNodes>
            0 -1 430 5.9862788766622543e-02</internalNodes>
          <leafValues>
            -8.1177346408367157e-02 7.1342438459396362e-01</leafValues></_>
        <_>
          <internalNodes>
            0 -1 522 -9.3047495465725660e-04</internalNodes>
          <leafValues>
            3.9023500680923462e-01 -1.4764350652694702e-01</leafValues></_>
        <_>
          <internalNodes>
            0 -1 352 3.8984428101684898e-05</internalNodes>
          <leafValues>
            -2.6261624693870544e-01 1.8596945703029633e-01</leafValues></_>
        <_>
          <internalNodes>
            0 -1 305 9.2518609017133713e-03</internalNodes>
          <leafValues>
            1.0755060613155365e-01 -4.6424698829650879e-01</leafValues></_></weakClassifiers></_>
    <!-- stage 12 -->
    <_>
      <maxWeakCount>33</maxWeakCount>
      <stageThreshold>-1.1080073118209839e+00</stageThreshold>
      <weakClassifiers>
        <_>
          <internalNodes>
            0 -1 78 1.6344327479600906e-02</internalNodes>
          <leafValues>
            -1.5664336085319519e-01 3.9298245310783386e-01</leafValues></_>
        <_>
          <internalNodes>
            0 -1 450 1.5301366802304983e-03</internalNodes>
          <leafValues>
            -8.6470082402229309e-02 5.8780264854431152e-01</leafValues></_>
        <_>
          <internalNodes>
            0 -1 371 3.2219634158536792e-04</internalNodes>
          <leafValues>
            1.1403417587280273e-01 -4.6590951085090637e-01</leafValues></_>
        <_>
          <internalNodes>
            0 -1 426 -1.1414794716984034e-03</internalNodes>
          <leafValues>
            4.5039927959442139e-01 -1.1587791889905930e-01</leafValues></_>
        <_>
          <internalNodes>
            0 -1 115 -4.8351222649216652e-03</internalNodes>
          <leafValues>
            4.1234391927719116e-01 -1.4641997218132019e-01</leafValues></_>
        <_>
          <internalNodes>
            0 -1 9 3.2028522342443466e-02</internalNodes>
          <leafValues>
            1.6742590069770813e-01 -6.5074646472930908e-01</leafValues></_>
        <_>
          <internalNodes>
            0 -1 299 1.3522682711482048e-02</internalNodes>
          <leafValues>
            -1.3405622541904449e-01 5.5829656124114990e-01</leafValues></_>
        <_>
          <internalNodes>
            0 -1 160 -8.5170919192023575e-05</internalNodes>
          <leafValues>
            -3.3572560548782349e-01 1.6842043399810791e-01</leafValues></_>
        <_>
          <internalNodes>
            0 -1 540 1.8772867042571306e-03</internalNodes>
          <leafValues>
            -1.6878837347030640e-01 3.3839547634124756e-01</leafValues></_>
        <_>
          <internalNodes>
            0 -1 228 2.1467788610607386e-03</internalNodes>
          <leafValues>
            1.1580850183963776e-01 -4.7551080584526062e-01</leafValues></_>
        <_>
          <internalNodes>
            0 -1 46 -8.3151191938668489e-04</internalNodes>
          <leafValues>
            5.9402143955230713e-01 -7.9634346067905426e-02</leafValues></_>
        <_>
          <internalNodes>
            0 -1 292 4.0971113776322454e-05</internalNodes>
          <leafValues>
            -2.5356838107109070e-01 1.9883276522159576e-01</leafValues></_>
        <_>
          <internalNodes>
            0 -1 347 -1.1789906420744956e-04</internalNodes>
          <leafValues>
            1.5741704404354095e-01 -3.0883592367172241e-01</leafValues></_>
        <_>
          <internalNodes>
            0 -1 186 1.3398518785834312e-03</internalNodes>
          <leafValues>
            -1.9246007502079010e-01 2.7836686372756958e-01</leafValues></_>
        <_>
          <internalNodes>
            0 -1 92 -3.3400878310203552e-02</internalNodes>
          <leafValues>
            -6.5223348140716553e-01 7.8070536255836487e-02</leafValues></_>
        <_>
          <internalNodes>
            0 -1 316 1.1805648682639003e-04</internalNodes>
          <leafValues>
            -2.6714327931404114e-01 1.6874925792217255e-01</leafValues></_>
        <_>
          <internalNodes>
            0 -1 25 3.2396030426025391e-01</internalNodes>
          <leafValues>
            6.2050212174654007e-02 -7.6724392175674438e-01</leafValues></_>
        <_>
          <internalNodes>
            0 -1 471 -1.9401761237531900e-03</internalNodes>
          <leafValues>
            1.7261609435081482e-01 -2.8621029853820801e-01</leafValues></_>
        <_>
          <internalNodes>
            0 -1 268 -2.3472064640372992e-03</internalNodes>
          <leafValues>
            2.7993392944335938e-01 -1.7504112422466278e-01</leafValues></_>
        <_>
          <internalNodes>
            0 -1 138 3.8312654942274094e-04</internalNodes>
          <leafValues>
            1.2254179269075394e-01 -4.3117982149124146e-01</leafValues></_>
        <_>
          <internalNodes>
            0 -1 439 -9.8308618180453777e-04</internalNodes>
          <leafValues>
            -6.6482537984848022e-01 6.1813600361347198e-02</leafValues></_>
        <_>
          <internalNodes>
            0 -1 390 -2.0137308165431023e-03</internalNodes>
          <leafValues>
            6.8759483098983765e-01 -8.2176461815834045e-02</leafValues></_>
        <_>
          <internalNodes>
            0 -1 344 3.3837426453828812e-03</internalNodes>
          <leafValues>
            1.9298352301120758e-01 -2.5914433598518372e-01</leafValues></_>
        <_>
          <internalNodes>
            0 -1 150 -1.6993159661069512e-03</internalNodes>
          <leafValues>
            6.2477070093154907e-01 -7.9061090946197510e-02</leafValues></_>
        <_>
          <internalNodes>
            0 -1 303 -3.0205450020730495e-03</internalNodes>
          <leafValues>
            3.2749196887016296e-01 -1.3172273337841034e-01</leafValues></_>
        <_>
          <internalNodes>
            0 -1 402 -1.3603535480797291e-03</internalNodes>
          <leafValues>
            5.4698181152343750e-01 -8.5512287914752960e-02</leafValues></_>
        <_>
          <internalNodes>
            0 -1 137 6.9337817840278149e-03</internalNodes>
          <leafValues>
            -1.2403365969657898e-01 3.9869982004165649e-01</leafValues></_>
        <_>
          <internalNodes>
            0 -1 504 1.1967164464294910e-03</internalNodes>
          <leafValues>
            -1.1136768758296967e-01 4.0707874298095703e-01</leafValues></_>
        <_>
          <internalNodes>
            0 -1 192 -5.6738704442977905e-03</internalNodes>
          <leafValues>
            -5.2462440729141235e-01 9.7802534699440002e-02</leafValues></_>
        <_>
          <internalNodes>
            0 -1 454 8.0340914428234100e-03</internalNodes>
          <leafValues>
            -1.2405876815319061e-01 4.6789297461509705e-01</leafValues></_>
        <_>
          <internalNodes>
            0 -1 483 3.0112627428025007e-04</internalNodes>
          <leafValues>
            1.0007268190383911e-01 -5.5744534730911255e-01</leafValues></_>
        <_>
          <internalNodes>
            0 -1 482 -2.3167785257101059e-03</internalNodes>
          <leafValues>
            -5.9806001186370850e-01 7.6609373092651367e-02</leafValues></_>
        <_>
          <internalNodes>
            0 -1 436 1.5226376708596945e-03</internalNodes>
          <leafValues>
            -2.3013323545455933e-01 2.2491404414176941e-01</leafValues></_></weakClassifiers></_>
    <!-- stage 13 -->
    <_>
      <maxWeakCount>36</maxWeakCount>
      <stageThreshold>-1.0441020727157593e+00</stageThreshold>
      <weakClassifiers>
        <_>
          <internalNodes>
            0 -1 368 2.1677216864190996e-05</internalNodes>
          <leafValues>
            -2.5635594129562378e-01 2.2916667163372040e-01</leafValues></_>
        <_>
          <internalNodes>
            0 -1 158 -4.5603089965879917e-03</internalNodes>
          <leafValues>
            3.5464692115783691e-01 -1.6333006322383881e-01</leafValues></_>
        <_>
          <internalNodes>
            0 -1 253 -5.9282942675054073e-04</internalNodes>
          <leafValues>
            3.2540658116340637e-01 -1.5067709982395172e-01</leafValues></_>
        <_>
          <internalNodes>
            0 -1 147 -4.8112468793988228e-03</internalNodes>
          <leafValues>
            1.3092106580734253e-01 -3.6444553732872009e-01</leafValues></_>
        <_>
          <internalNodes>
            0 -1 86 2.1384968422353268e-03</internalNodes>
          <leafValues>
            -1.1950370669364929e-01 3.3958116173744202e-01</leafValues></_>
        <_>
          <internalNodes>
            0 -1 300 -1.9258742686361074e-03</internalNodes>
          <leafValues>
            4.2953646183013916e-01 -1.3335044682025909e-01</leafValues></_>
        <_>
          <internalNodes>
            0 -1 341 8.0427620559930801e-03</internalNodes>
          <leafValues>
            5.9112221002578735e-02 -9.0102732181549072e-01</leafValues></_>
        <_>
          <internalNodes>
            0 -1 552 -5.9337578713893890e-03</internalNodes>
          <leafValues>
            4.8878374695777893e-01 -8.8747657835483551e-02</leafValues></_>
        <_>
          <internalNodes>
            0 -1 425 2.2969809360802174e-03</internalNodes>
          <leafValues>
            -9.3982934951782227e-02 5.8442825078964233e-01</leafValues></_>
        <_>
          <internalNodes>
            0 -1 498 -4.8887821321841329e-05</internalNodes>
          <leafValues>
            1.1040093749761581e-01 -4.4483771920204163e-01</leafValues></_>
        <_>
          <internalNodes>
            0 -1 517 5.2967502597311977e-06</internalNodes>
          <leafValues>
            -2.0415800809860229e-01 2.8671061992645264e-01</leafValues></_>
        <_>
          <internalNodes>
            0 -1 404 2.3158537223935127e-03</internalNodes>
          <leafValues>
            1.0113872587680817e-01 -3.9502152800559998e-01</leafValues></_>
        <_>
          <internalNodes>
            0 -1 84 6.7058905959129333e-02</internalNodes>
          <leafValues>
            1.0021091252565384e-01 -5.8327245712280273e-01</leafValues></_>
        <_>
          <internalNodes>
            0 -1 467 -5.5449025239795446e-04</internalNodes>
          <leafValues>
            3.2482987642288208e-01 -1.5939426422119141e-01</leafValues></_>
        <_>
          <internalNodes>
            0 -1 143 -1.8162909895181656e-02</internalNodes>
          <leafValues>
            -7.6698499917984009e-01 8.1500142812728882e-02</leafValues></_>
        <_>
          <internalNodes>
            0 -1 28 9.1452300548553467e-03</internalNodes>
          <leafValues>
            -1.1567948013544083e-01 5.0083696842193604e-01</leafValues></_>
        <_>
          <internalNodes>
            0 -1 419 -1.1654822155833244e-03</internalNodes>
          <leafValues>
            1.4231017231941223e-01 -3.5271719098091125e-01</leafValues></_>
        <_>
          <internalNodes>
            0 -1 322 1.8648838624358177e-02</internalNodes>
          <leafValues>
            9.4198502600193024e-02 -4.7446841001510620e-01</leafValues></_>
        <_>
          <internalNodes>
            0 -1 460 -1.1590480426093563e-04</internalNodes>
          <leafValues>
            -2.2825331985950470e-01 1.8205270171165466e-01</leafValues></_>
        <_>
          <internalNodes>
            0 -1 114 -1.4647507341578603e-03</internalNodes>
          <leafValues>
            6.6111987829208374e-01 -6.5570287406444550e-02</leafValues></_>
        <_>
          <internalNodes>
            0 -1 444 -9.9501293152570724e-04</internalNodes>
          <leafValues>
            3.6869004368782043e-01 -1.1855365335941315e-01</leafValues></_>
        <_>
          <internalNodes>
            0 -1 179 6.5379856096114963e-05</internalNodes>
          <leafValues>
            1.5953250229358673e-01 -3.2102549076080322e-01</leafValues></_>
        <_>
          <internalNodes>
            0 -1 391 -1.4910090249031782e-04</internalNodes>
          <leafValues>
            3.1105148792266846e-01 -1.5503028035163879e-01</leafValues></_>
        <_>
          <internalNodes>
            0 -1 310 5.0765310879796743e-04</internalNodes>
          <leafValues>
            1.2174422293901443e-01 -4.0355780720710754e-01</leafValues></_>
        <_>
          <internalNodes>
            0 -1 57 -1.3382516801357269e-01</internalNodes>
          <leafValues>
            7.5952035188674927e-01 -7.8587897121906281e-02</leafValues></_>
        <_>
          <internalNodes>
            0 -1 12 -8.2613723352551460e-03</internalNodes>
          <leafValues>
            3.7920162081718445e-01 -1.0274167358875275e-01</leafValues></_>
        <_>
          <internalNodes>
            0 -1 570 -2.9232027009129524e-04</internalNodes>
          <leafValues>
            -3.7047150731086731e-01 1.1808912456035614e-01</leafValues></_>
        <_>
          <internalNodes>
            0 -1 519 -5.2595902234315872e-03</internalNodes>
          <leafValues>
            2.0260730385780334e-01 -2.1966417133808136e-01</leafValues></_>
        <_>
          <internalNodes>
            0 -1 149 5.9711765497922897e-03</internalNodes>
          <leafValues>
            -1.0498207807540894e-01 4.6181723475456238e-01</leafValues></_>
        <_>
          <internalNodes>
            0 -1 152 3.0600017635151744e-04</internalNodes>
          <leafValues>
            -1.7779548466205597e-01 2.8049218654632568e-01</leafValues></_>
        <_>
          <internalNodes>
            0 -1 151 3.6504468880593777e-03</internalNodes>
          <leafValues>
            4.5722711831331253e-02 -8.8401442766189575e-01</leafValues></_>
        <_>
          <internalNodes>
            0 -1 196 -8.1207416951656342e-03</internalNodes>
          <leafValues>
            4.0300464630126953e-01 -1.2455004453659058e-01</leafValues></_>
        <_>
          <internalNodes>
            0 -1 102 -5.7052740885410458e-05</internalNodes>
          <leafValues>
            -2.7743220329284668e-01 1.6381470859050751e-01</leafValues></_>
        <_>
          <internalNodes>
            0 -1 97 1.5630202367901802e-02</internalNodes>
          <leafValues>
            -1.0049724578857422e-01 4.8962467908859253e-01</leafValues></_>
        <_>
          <internalNodes>
            0 -1 54 -4.8474363982677460e-02</internalNodes>
          <leafValues>
            5.3169769048690796e-01 -9.3061871826648712e-02</leafValues></_>
        <_>
          <internalNodes>
            0 -1 96 -3.5151893825968727e-05</internalNodes>
          <leafValues>
            -2.0410610735416412e-01 2.0899631083011627e-01</leafValues></_></weakClassifiers></_>
    <!-- stage 14 -->
    <_>
      <maxWeakCount>38</maxWeakCount>
      <stageThreshold>-1.1502026319503784e+00</stageThreshold>
      <weakClassifiers>
        <_>
          <internalNodes>
            0 -1 445 -5.4012681357562542e-04</internalNodes>
          <leafValues>
            5.9077811241149902e-01 -1.2401694059371948e-01</leafValues></_>
        <_>
          <internalNodes>
            0 -1 445 6.2117318157106638e-04</internalNodes>
          <leafValues>
            -8.4318093955516815e-02 5.5192339420318604e-01</leafValues></_>
        <_>
          <internalNodes>
            0 -1 27 -9.7787678241729736e-03</internalNodes>
          <leafValues>
            2.1537885069847107e-01 -2.3039083182811737e-01</leafValues></_>
        <_>
          <internalNodes>
            0 -1 529 -5.5004386231303215e-03</internalNodes>
          <leafValues>
            3.4730944037437439e-01 -1.4341588318347931e-01</leafValues></_>
        <_>
          <internalNodes>
            0 -1 356 1.9551098812371492e-03</internalNodes>
          <leafValues>
            -1.0797391086816788e-01 5.3040391206741333e-01</leafValues></_>
        <_>
          <internalNodes>
            0 -1 179 -4.1275146941188723e-05</internalNodes>
          <leafValues>
            -2.9069346189498901e-01 1.6516484320163727e-01</leafValues></_>
        <_>
          <internalNodes>
            0 -1 464 -4.6901186578907073e-04</internalNodes>
          <leafValues>
            3.6916276812553406e-01 -1.1591140925884247e-01</leafValues></_>
        <_>
          <internalNodes>
            0 -1 226 -2.9559009708464146e-03</internalNodes>
          <leafValues>
            -4.4317474961280823e-01 1.3155137002468109e-01</leafValues></_>
        <_>
          <internalNodes>
            0 -1 224 3.8779419846832752e-03</internalNodes>
          <leafValues>
            6.5000295639038086e-02 -6.1950790882110596e-01</leafValues></_>
        <_>
          <internalNodes>
            0 -1 464 7.3200161568820477e-04</internalNodes>
          <leafValues>
            -1.1453870683908463e-01 4.7375658154487610e-01</leafValues></_>
        <_>
          <internalNodes>
            0 -1 422 -1.3173847037251107e-05</internalNodes>
          <leafValues>
            3.1580257415771484e-01 -1.4030030369758606e-01</leafValues></_>
        <_>
          <internalNodes>
            0 -1 459 7.0589026436209679e-03</internalNodes>
          <leafValues>
            -3.1872034072875977e-01 1.4952726662158966e-01</leafValues></_>
        <_>
          <internalNodes>
            0 -1 105 1.1821195948868990e-03</internalNodes>
          <leafValues>
            -9.9754355847835541e-02 5.2134317159652710e-01</leafValues></_>
        <_>
          <internalNodes>
            0 -1 244 1.3261013664305210e-03</internalNodes>
          <leafValues>
            -5.3182393312454224e-02 6.5031248331069946e-01</leafValues></_>
        <_>
          <internalNodes>
            0 -1 125 -6.7723238316830248e-05</internalNodes>
          <leafValues>
            -3.0724614858627319e-01 1.5321196615695953e-01</leafValues></_>
        <_>
          <internalNodes>
            0 -1 63 -1.1620484292507172e-04</internalNodes>
          <leafValues>
            -2.8523597121238708e-01 1.5498965978622437e-01</leafValues></_>
        <_>
          <internalNodes>
            0 -1 131 7.4784889875445515e-05</internalNodes>
          <leafValues>
            -1.8599435687065125e-01 2.3611718416213989e-01</leafValues></_>
        <_>
          <internalNodes>
            0 -1 221 -2.2723358124494553e-03</internalNodes>
          <leafValues>
            3.3230140805244446e-01 -1.5466041862964630e-01</leafValues></_>
        <_>
          <internalNodes>
            0 -1 298 8.4972806507721543e-04</internalNodes>
          <leafValues>
            1.1387543380260468e-01 -3.7656915187835693e-01</leafValues></_>
        <_>
          <internalNodes>
            0 -1 547 -6.2386519275605679e-03</internalNodes>
          <leafValues>
            5.0249338150024414e-01 -8.5401669144630432e-02</leafValues></_>
        <_>
          <internalNodes>
            0 -1 234 2.3855760693550110e-02</internalNodes>
          <leafValues>
            8.0766044557094574e-02 -5.5426955223083496e-01</leafValues></_>
        <_>
          <internalNodes>
            0 -1 532 -1.0586382821202278e-02</internalNodes>
          <leafValues>
            3.7462827563285828e-01 -1.1337330937385559e-01</leafValues></_>
        <_>
          <internalNodes>
            0 -1 173 -1.0601358488202095e-02</internalNodes>
          <leafValues>
            -6.0054886341094971e-01 7.2139792144298553e-02</leafValues></_>
        <_>
          <internalNodes>
            0 -1 500 5.2967502597311977e-06</internalNodes>
          <leafValues>
            -2.0034287869930267e-01 2.3338110744953156e-01</leafValues></_>
        <_>
          <internalNodes>
            0 -1 501 -2.8481186018325388e-04</internalNodes>
          <leafValues>
            2.5825092196464539e-01 -1.8733742833137512e-01</leafValues></_>
        <_>
          <internalNodes>
            0 -1 403 -1.4272844418883324e-03</internalNodes>
          <leafValues>
            4.6363908052444458e-01 -8.7972857058048248e-02</leafValues></_>
        <_>
          <internalNodes>
            0 -1 557 1.7285777721554041e-04</internalNodes>
          <leafValues>
            1.5313443541526794e-01 -2.9080554842948914e-01</leafValues></_>
        <_>
          <internalNodes>
            0 -1 237 -2.5721269194036722e-03</internalNodes>
          <leafValues>
            4.9961471557617188e-01 -9.0524934232234955e-02</leafValues></_>
        <_>
          <internalNodes>
            0 -1 573 5.3393159760162234e-04</internalNodes>
          <leafValues>
            1.1940953135490417e-01 -3.8413232564926147e-01</leafValues></_>
        <_>
          <internalNodes>
            0 -1 227 -2.7914816746488214e-04</internalNodes>
          <leafValues>
            2.4814194440841675e-01 -1.8268032371997833e-01</leafValues></_>
        <_>
          <internalNodes>
            0 -1 440 -1.5006924513727427e-04</internalNodes>
          <leafValues>
            1.7213471233844757e-01 -2.6332443952560425e-01</leafValues></_>
        <_>
          <internalNodes>
            0 -1 174 -2.0248837769031525e-02</internalNodes>
          <leafValues>
            4.3233007192611694e-01 -1.1782088875770569e-01</leafValues></_>
        <_>
          <internalNodes>
            0 -1 389 -2.3562563001178205e-04</internalNodes>
          <leafValues>
            3.5853719711303711e-01 -1.2468399852514267e-01</leafValues></_>
        <_>
          <internalNodes>
            0 -1 318 2.5434442795813084e-03</internalNodes>
          <leafValues>
            6.1268944293260574e-02 -7.9566109180450439e-01</leafValues></_>
        <_>
          <internalNodes>
            0 -1 550 -1.9606500864028931e-03</internalNodes>
          <leafValues>
            -4.5558229088783264e-01 8.8323570787906647e-02</leafValues></_>
        <_>
          <internalNodes>
            0 -1 269 5.2944733761250973e-04</internalNodes>
          <leafValues>
            -1.0938400030136108e-01 4.8398423194885254e-01</leafValues></_>
        <_>
          <internalNodes>
            0 -1 225 -1.6162097454071045e-02</internalNodes>
          <leafValues>
            3.9958152174949646e-01 -1.0539500415325165e-01</leafValues></_>
        <_>
          <internalNodes>
            0 -1 572 4.2223429773002863e-04</internalNodes>
          <leafValues>
            1.3855342566967010e-01 -3.2616513967514038e-01</leafValues></_></weakClassifiers></_>
    <!-- stage 15 -->
    <_>
      <maxWeakCount>42</maxWeakCount>
      <stageThreshold>-1.0798642635345459e+00</stageThreshold>
      <weakClassifiers>
        <_>
          <internalNodes>
            0 -1 481 -6.4035821706056595e-03</internalNodes>
          <leafValues>
            2.7515152096748352e-01 -1.9319148361682892e-01</leafValues></_>
        <_>
          <internalNodes>
            0 -1 339 9.5553062856197357e-03</internalNodes>
          <leafValues>
            9.3978166580200195e-02 -5.2143216133117676e-01</leafValues></_>
        <_>
          <internalNodes>
            0 -1 79 -1.4985375106334686e-02</internalNodes>
          <leafValues>
            4.5695084333419800e-01 -6.6928647458553314e-02</leafValues></_>
        <_>
          <internalNodes>
            0 -1 470 -2.8807825874537230e-03</internalNodes>
          <leafValues>
            -5.8234208822250366e-01 9.5493858680129051e-03</leafValues></_>
        <_>
          <internalNodes>
            0 -1 45 8.8519761338829994e-03</internalNodes>
          <leafValues>
            8.7221086025238037e-02 -4.5985117554664612e-01</leafValues></_>
        <_>
          <internalNodes>
            0 -1 130 2.3283378686755896e-03</internalNodes>
          <leafValues>
            -1.1842989921569824e-01 3.2358220219612122e-01</leafValues></_>
        <_>
          <internalNodes>
            0 -1 223 2.4300280492752790e-03</internalNodes>
          <leafValues>
            4.7602750360965729e-02 -8.3806514739990234e-01</leafValues></_>
        <_>
          <internalNodes>
            0 -1 379 2.7342923567630351e-04</internalNodes>
          <leafValues>
            8.9239723980426788e-02 -4.8694297671318054e-01</leafValues></_>
        <_>
          <internalNodes>
            0 -1 285 -1.3298282283358276e-04</internalNodes>
          <leafValues>
            1.3084386289119720e-01 -3.0822515487670898e-01</leafValues></_>
        <_>
          <internalNodes>
            0 -1 252 1.5554759884253144e-03</internalNodes>
          <leafValues>
            -2.0983695983886719e-01 2.1148888766765594e-01</leafValues></_>
        <_>
          <internalNodes>
            0 -1 135 -2.1680488716810942e-03</internalNodes>
          <leafValues>
            3.4409141540527344e-01 -1.1173456907272339e-01</leafValues></_>
        <_>
          <internalNodes>
            0 -1 243 7.4348142370581627e-03</internalNodes>
          <leafValues>
            8.9756816625595093e-02 -4.2617201805114746e-01</leafValues></_>
        <_>
          <internalNodes>
            0 -1 536 5.2996776066720486e-03</internalNodes>
          <leafValues>
            -1.2098786234855652e-01 3.4802484512329102e-01</leafValues></_>
        <_>
          <internalNodes>
            0 -1 37 -6.7209694534540176e-03</internalNodes>
          <leafValues>
            3.4436881542205811e-01 -1.1332154273986816e-01</leafValues></_>
        <_>
          <internalNodes>
            0 -1 19 9.5396448159590364e-05</internalNodes>
          <leafValues>
            1.5394830703735352e-01 -2.8612396121025085e-01</leafValues></_>
        <_>
          <internalNodes>
            0 -1 14 1.5233798185363412e-03</internalNodes>
          <leafValues>
            -1.4110074937343597e-01 3.1604424118995667e-01</leafValues></_>
        <_>
          <internalNodes>
            0 -1 514 -2.7677929028868675e-03</internalNodes>
          <leafValues>
            2.7970358729362488e-01 -1.3809983432292938e-01</leafValues></_>
        <_>
          <internalNodes>
            0 -1 48 4.0062534390017390e-04</internalNodes>
          <leafValues>
            7.9082362353801727e-02 -3.9857363700866699e-01</leafValues></_>
        <_>
          <internalNodes>
            0 -1 466 -6.7172572016716003e-04</internalNodes>
          <leafValues>
            4.9180746078491211e-01 -8.1966623663902283e-02</leafValues></_>
        <_>
          <internalNodes>
            0 -1 249 -1.0678313672542572e-02</internalNodes>
          <leafValues>
            2.5795316696166992e-01 -1.5186662971973419e-01</leafValues></_>
        <_>
          <internalNodes>
            0 -1 204 -1.7654290422797203e-03</internalNodes>
          <leafValues>
            -6.8880563974380493e-01 7.0187084376811981e-02</leafValues></_>
        <_>
          <internalNodes>
            0 -1 333 1.4557475224137306e-03</internalNodes>
          <leafValues>
            -1.0528520494699478e-01 4.0633594989776611e-01</leafValues></_>
        <_>
          <internalNodes>
            0 -1 533 3.8464055396616459e-03</internalNodes>
          <leafValues>
            -2.4248822033405304e-01 1.5892864763736725e-01</leafValues></_>
        <_>
          <internalNodes>
            0 -1 246 -7.5552828609943390e-02</internalNodes>
          <leafValues>
            -8.6557203531265259e-01 5.2486501634120941e-02</leafValues></_>
        <_>
          <internalNodes>
            0 -1 101 -4.0430938825011253e-03</internalNodes>
          <leafValues>
            5.8372956514358521e-01 -7.8106418251991272e-02</leafValues></_>
        <_>
          <internalNodes>
            0 -1 364 1.3126946985721588e-02</internalNodes>
          <leafValues>
            5.9002783149480820e-02 -7.0374083518981934e-01</leafValues></_>
        <_>
          <internalNodes>
            0 -1 178 1.0935649275779724e-02</internalNodes>
          <leafValues>
            -1.0548296570777893e-01 3.7907025218009949e-01</leafValues></_>
        <_>
          <internalNodes>
            0 -1 185 -8.6620777437929064e-05</internalNodes>
          <leafValues>
            -2.9397293925285339e-01 1.3585896790027618e-01</leafValues></_>
        <_>
          <internalNodes>
            0 -1 113 -1.0030327364802361e-02</internalNodes>
          <leafValues>
            6.0541415214538574e-01 -6.6768527030944824e-02</leafValues></_>
        <_>
          <internalNodes>
            0 -1 30 9.0132337063550949e-03</internalNodes>
          <leafValues>
            -1.2386088073253632e-01 3.0317491292953491e-01</leafValues></_>
        <_>
          <internalNodes>
            0 -1 81 -7.4626223067753017e-05</internalNodes>
          <leafValues>
            -2.5211495161056519e-01 1.5007564425468445e-01</leafValues></_>
        <_>
          <internalNodes>
            0 -1 81 1.9956684263888747e-04</internalNodes>
          <leafValues>
            9.2090621590614319e-02 -4.1133302450180054e-01</leafValues></_>
        <_>
          <internalNodes>
            0 -1 495 -1.8020436167716980e-02</internalNodes>
          <leafValues>
            -7.0546925067901611e-01 5.2475508302450180e-02</leafValues></_>
        <_>
          <internalNodes>
            0 -1 488 2.9105204157531261e-04</internalNodes>
          <leafValues>
            -1.9284689426422119e-01 1.9640935957431793e-01</leafValues></_>
        <_>
          <internalNodes>
            0 -1 382 -7.4009370291605592e-04</internalNodes>
          <leafValues>
            4.2697072029113770e-01 -9.4937987625598907e-02</leafValues></_>
        <_>
          <internalNodes>
            0 -1 382 9.3536917120218277e-05</internalNodes>
          <leafValues>
            -2.3590818047523499e-01 2.3459962010383606e-01</leafValues></_>
        <_>
          <internalNodes>
            0 -1 429 -2.3557728156447411e-02</internalNodes>
          <leafValues>
            -7.9506599903106689e-01 5.9679642319679260e-02</leafValues></_>
        <_>
          <internalNodes>
            0 -1 400 -2.7395440265536308e-03</internalNodes>
          <leafValues>
            4.6737357974052429e-01 -9.1882452368736267e-02</leafValues></_>
        <_>
          <internalNodes>
            0 -1 340 3.2831211574375629e-03</internalNodes>
          <leafValues>
            5.6435763835906982e-02 -7.5541132688522339e-01</leafValues></_>
        <_>
          <internalNodes>
            0 -1 401 2.2543813101947308e-03</internalNodes>
          <leafValues>
            -1.1273107677698135e-01 3.6380866169929504e-01</leafValues></_>
        <_>
          <internalNodes>
            0 -1 145 1.4249587431550026e-02</internalNodes>
          <leafValues>
            4.5377742499113083e-02 -8.3266317844390869e-01</leafValues></_>
        <_>
          <internalNodes>
            0 -1 64 -1.1455353815108538e-03</internalNodes>
          <leafValues>
            6.3049030303955078e-01 -6.4582705497741699e-02</leafValues></_></weakClassifiers></_>
    <!-- stage 16 -->
    <_>
      <maxWeakCount>38</maxWeakCount>
      <stageThreshold>-1.0867800712585449e+00</stageThreshold>
      <weakClassifiers>
        <_>
          <internalNodes>
            0 -1 175 -4.9158555269241333e-01</internalNodes>
          <leafValues>
            4.4878047704696655e-01 -1.1572326719760895e-01</leafValues></_>
        <_>
          <internalNodes>
            0 -1 128 8.6278910748660564e-04</internalNodes>
          <leafValues>
            -1.6285893321037292e-01 2.7912867069244385e-01</leafValues></_>
        <_>
          <internalNodes>
            0 -1 241 -7.3254486778751016e-05</internalNodes>
          <leafValues>
            -3.2581198215484619e-01 1.1556556075811386e-01</leafValues></_>
        <_>
          <internalNodes>
            0 -1 146 -1.3497281179297715e-04</internalNodes>
          <leafValues>
            -3.2735431194305420e-01 1.3196289539337158e-01</leafValues></_>
        <_>
          <internalNodes>
            0 -1 306 1.7822834197431803e-03</internalNodes>
          <leafValues>
            -1.2557953596115112e-01 3.0140072107315063e-01</leafValues></_>
        <_>
          <internalNodes>
            0 -1 287 4.0558665205026045e-05</internalNodes>
          <leafValues>
            -2.1231953799724579e-01 2.3280663788318634e-01</leafValues></_>
        <_>
          <internalNodes>
            0 -1 120 -9.2151230201125145e-03</internalNodes>
          <leafValues>
            2.7596169710159302e-01 -1.4971666038036346e-01</leafValues></_>
        <_>
          <internalNodes>
            0 -1 314 7.0599335231236182e-06</internalNodes>
          <leafValues>
            -2.5881290435791016e-01 1.8514123558998108e-01</leafValues></_>
        <_>
          <internalNodes>
            0 -1 203 -8.3408091450110078e-04</internalNodes>
          <leafValues>
            -4.9706411361694336e-01 6.6842123866081238e-02</leafValues></_>
        <_>
          <internalNodes>
            0 -1 248 9.9303130991756916e-04</internalNodes>
          <leafValues>
            -1.5215143561363220e-01 2.9176062345504761e-01</leafValues></_>
        <_>
          <internalNodes>
            0 -1 512 9.5332041382789612e-02</internalNodes>
          <leafValues>
            -4.9192976206541061e-02 1.</leafValues></_>
        <_>
          <internalNodes>
            0 -1 457 1.4304257929325104e-03</internalNodes>
          <leafValues>
            1.0764326155185699e-01 -6.0305255651473999e-01</leafValues></_>
        <_>
          <internalNodes>
            0 -1 118 -2.9816783498972654e-03</internalNodes>
          <leafValues>
            3.2259160280227661e-01 -1.1484832316637039e-01</leafValues></_>
        <_>
          <internalNodes>
            0 -1 414 -1.1297706514596939e-03</internalNodes>
          <leafValues>
            -5.8425551652908325e-01 8.0340072512626648e-02</leafValues></_>
        <_>
          <internalNodes>
            0 -1 60 1.8446103786118329e-04</internalNodes>
          <leafValues>
            -1.6367720067501068e-01 2.4869389832019806e-01</leafValues></_>
        <_>
          <internalNodes>
            0 -1 473 -7.3775945929810405e-04</internalNodes>
          <leafValues>
            -6.6259622573852539e-01 3.0244296416640282e-02</leafValues></_>
        <_>
          <internalNodes>
            0 -1 526 1.8380168825387955e-02</internalNodes>
          <leafValues>
            -5.6795492768287659e-02 7.4114263057708740e-01</leafValues></_>
        <_>
          <internalNodes>
            0 -1 485 -5.5919392034411430e-03</internalNodes>
          <leafValues>
            3.1402948498725891e-01 -1.4729337394237518e-01</leafValues></_>
        <_>
          <internalNodes>
            0 -1 251 -1.7784700030460954e-03</internalNodes>
          <leafValues>
            -3.2200205326080322e-01 1.3155007362365723e-01</leafValues></_>
        <_>
          <internalNodes>
            0 -1 277 -6.5039694309234619e-02</internalNodes>
          <leafValues>
            6.3905632495880127e-01 -6.5878808498382568e-02</leafValues></_>
        <_>
          <internalNodes>
            0 -1 44 4.1412082500755787e-03</internalNodes>
          <leafValues>
            -8.4271721541881561e-02 4.0774825215339661e-01</leafValues></_>
        <_>
          <internalNodes>
            0 -1 516 2.9189593624323606e-04</internalNodes>
          <leafValues>
            -1.8411743640899658e-01 2.0274408161640167e-01</leafValues></_>
        <_>
          <internalNodes>
            0 -1 449 -1.9938496407121420e-03</internalNodes>
          <leafValues>
            5.2884113788604736e-01 -6.0641389340162277e-02</leafValues></_>
        <_>
          <internalNodes>
            0 -1 449 2.0990041084587574e-03</internalNodes>
          <leafValues>
            -7.4568942189216614e-02 5.0882184505462646e-01</leafValues></_>
        <_>
          <internalNodes>
            0 -1 320 -2.2760478779673576e-02</internalNodes>
          <leafValues>
            -8.5704201459884644e-01 4.6786069869995117e-02</leafValues></_>
        <_>
          <internalNodes>
            0 -1 87 -1.3660194817930460e-03</internalNodes>
          <leafValues>
            7.1530568599700928e-01 -6.3438184559345245e-02</leafValues></_>
        <_>
          <internalNodes>
            0 -1 68 -1.1069476604461670e-02</internalNodes>
          <leafValues>
            -5.8369666337966919e-01 6.7317761480808258e-02</leafValues></_>
        <_>
          <internalNodes>
            0 -1 218 2.6888409629464149e-03</internalNodes>
          <leafValues>
            4.3791938573122025e-02 -7.9418033361434937e-01</leafValues></_>
        <_>
          <internalNodes>
            0 -1 229 2.2580318152904510e-02</internalNodes>
          <leafValues>
            3.8698662072420120e-02 -7.4229836463928223e-01</leafValues></_>
        <_>
          <internalNodes>
            0 -1 171 -5.0494086463004351e-04</internalNodes>
          <leafValues>
            2.2369644045829773e-01 -1.6907984018325806e-01</leafValues></_>
        <_>
          <internalNodes>
            0 -1 321 2.3779695038683712e-04</internalNodes>
          <leafValues>
            -2.0853275060653687e-01 1.6399241983890533e-01</leafValues></_>
        <_>
          <internalNodes>
            0 -1 442 1.5455181710422039e-03</internalNodes>
          <leafValues>
            7.5209155678749084e-02 -4.9897104501724243e-01</leafValues></_>
        <_>
          <internalNodes>
            0 -1 309 1.4145923778414726e-02</internalNodes>
          <leafValues>
            -1.8564902245998383e-01 2.0772239565849304e-01</leafValues></_>
        <_>
          <internalNodes>
            0 -1 336 -2.1227486431598663e-03</internalNodes>
          <leafValues>
            -1.4291670918464661e-01 3.3118870854377747e-01</leafValues></_>
        <_>
          <internalNodes>
            0 -1 43 -2.3462304379791021e-03</internalNodes>
          <leafValues>
            2.7660748362541199e-01 -1.4970262348651886e-01</leafValues></_>
        <_>
          <internalNodes>
            0 -1 342 4.1525135748088360e-04</internalNodes>
          <leafValues>
            1.0502229630947113e-01 -3.5937985777854919e-01</leafValues></_>
        <_>
          <internalNodes>
            0 -1 279 2.1809341851621866e-03</internalNodes>
          <leafValues>
            -3.4653493762016296e-01 1.1491982638835907e-01</leafValues></_>
        <_>
          <internalNodes>
            0 -1 108 -1.2862050207331777e-03</internalNodes>
          <leafValues>
            3.2304677367210388e-01 -1.1165738105773926e-01</leafValues></_></weakClassifiers></_>
    <!-- stage 17 -->
    <_>
      <maxWeakCount>46</maxWeakCount>
      <stageThreshold>-1.0061759948730469e+00</stageThreshold>
      <weakClassifiers>
        <_>
          <internalNodes>
            0 -1 112 -2.7915686368942261e-01</internalNodes>
          <leafValues>
            5.6065571308135986e-01 -1.0088495910167694e-01</leafValues></_>
        <_>
          <internalNodes>
            0 -1 260 7.6737522613257170e-04</internalNodes>
          <leafValues>
            6.4020961523056030e-02 -6.8086105585098267e-01</leafValues></_>
        <_>
          <internalNodes>
            0 -1 100 -8.9599590864963830e-05</internalNodes>
          <leafValues>
            -2.2523897886276245e-01 1.8317855894565582e-01</leafValues></_>
        <_>
          <internalNodes>
            0 -1 98 3.7476751022040844e-03</internalNodes>
          <leafValues>
            -1.3526777923107147e-01 3.0075573921203613e-01</leafValues></_>
        <_>
          <internalNodes>
            0 -1 250 -9.1432116460055113e-04</internalNodes>
          <leafValues>
            3.2537218928337097e-01 -1.2387391924858093e-01</leafValues></_>
        <_>
          <internalNodes>
            0 -1 240 -4.1530232876539230e-02</internalNodes>
          <leafValues>
            -2.3551930487155914e-01 1.6711273789405823e-01</leafValues></_>
        <_>
          <internalNodes>
            0 -1 543 1.9266646355390549e-02</internalNodes>
          <leafValues>
            -1.0326289385557175e-01 3.6697104573249817e-01</leafValues></_>
        <_>
          <internalNodes>
            0 -1 116 1.5865346358623356e-04</internalNodes>
          <leafValues>
            1.0554441064596176e-01 -3.7070474028587341e-01</leafValues></_>
        <_>
          <internalNodes>
            0 -1 255 2.2440366446971893e-03</internalNodes>
          <leafValues>
            -1.4984877407550812e-01 2.3768855631351471e-01</leafValues></_>
        <_>
          <internalNodes>
            0 -1 189 -9.7265765070915222e-03</internalNodes>
          <leafValues>
            3.9635321497917175e-01 -1.1423937231302261e-01</leafValues></_>
        <_>
          <internalNodes>
            0 -1 254 -1.4159363927319646e-03</internalNodes>
          <leafValues>
            -4.0151974558830261e-01 1.1522272974252701e-01</leafValues></_>
        <_>
          <internalNodes>
            0 -1 280 1.4967573806643486e-03</internalNodes>
          <leafValues>
            7.4799053370952606e-02 -3.9973491430282593e-01</leafValues></_>
        <_>
          <internalNodes>
            0 -1 95 -3.7701614201068878e-02</internalNodes>
          <leafValues>
            -1.0685960203409195e-01 3.7246945500373840e-01</leafValues></_>
        <_>
          <internalNodes>
            0 -1 103 6.2121041119098663e-03</internalNodes>
          <leafValues>
            8.4705017507076263e-02 -5.5601620674133301e-01</leafValues></_>
        <_>
          <internalNodes>
            0 -1 355 1.3623116537928581e-03</internalNodes>
          <leafValues>
            -1.0045280307531357e-01 4.4994530081748962e-01</leafValues></_>
        <_>
          <internalNodes>
            0 -1 392 1.7580473795533180e-03</internalNodes>
          <leafValues>
            -6.9694079458713531e-02 5.0417524576187134e-01</leafValues></_>
        <_>
          <internalNodes>
            0 -1 455 -7.8508327715098858e-04</internalNodes>
          <leafValues>
            -2.7971166372299194e-01 1.2674893438816071e-01</leafValues></_>
        <_>
          <internalNodes>
            0 -1 278 -3.0631790868937969e-03</internalNodes>
          <leafValues>
            4.6930325031280518e-01 -7.5211010873317719e-02</leafValues></_>
        <_>
          <internalNodes>
            0 -1 281 4.7620451077818871e-03</internalNodes>
          <leafValues>
            4.3429482728242874e-02 -8.4442293643951416e-01</leafValues></_>
        <_>
          <internalNodes>
            0 -1 329 3.1251029577106237e-04</internalNodes>
          <leafValues>
            1.1201260238885880e-01 -3.0881673097610474e-01</leafValues></_>
        <_>
          <internalNodes>
            0 -1 465 -2.4762917309999466e-03</internalNodes>
          <leafValues>
            3.0024182796478271e-01 -1.1274524778127670e-01</leafValues></_>
        <_>
          <internalNodes>
            0 -1 434 -2.2931140847504139e-03</internalNodes>
          <leafValues>
            -8.3599489927291870e-01 4.2791791260242462e-02</leafValues></_>
        <_>
          <internalNodes>
            0 -1 164 6.2941918149590492e-03</internalNodes>
          <leafValues>
            4.6529829502105713e-02 -5.9287667274475098e-01</leafValues></_>
        <_>
          <internalNodes>
            0 -1 539 2.1697166375815868e-03</internalNodes>
          <leafValues>
            -1.2863671779632568e-01 2.6377645134925842e-01</leafValues></_>
        <_>
          <internalNodes>
            0 -1 49 -2.2152181190904230e-04</internalNodes>
          <leafValues>
            -2.3736274242401123e-01 1.4718750119209290e-01</leafValues></_>
        <_>
          <internalNodes>
            0 -1 85 2.3438228527083993e-04</internalNodes>
          <leafValues>
            -1.3184989988803864e-01 2.4400767683982849e-01</leafValues></_>
        <_>
          <internalNodes>
            0 -1 180 4.2557399719953537e-03</internalNodes>
          <leafValues>
            -8.6716644465923309e-02 3.6517956852912903e-01</leafValues></_>
        <_>
          <internalNodes>
            0 -1 476 -9.7005320712924004e-03</internalNodes>
          <leafValues>
            -5.0398212671279907e-01 7.2685554623603821e-02</leafValues></_>
        <_>
          <internalNodes>
            0 -1 110 -8.8486261665821075e-03</internalNodes>
          <leafValues>
